tree
version=v4
num_class=3004
num_tree_per_iteration=3004
label_index=0
max_feature_idx=15
objective=multiclass num_class:3004
feature_names=Column_0 Column_1 Column_2 Column_3 Column_4 Column_5 Column_6 Column_7 Column_8 Column_9 Column_10 Column_11 Column_12 Column_13 Column_14 Column_15
feature_infos=-1:1:4:5:12:6:7:8:9:11:10:13:14:21:26:15:20:16:18:25:17:19:22:29:30:46:49:58:23:27:33:36:37:42:45:54:24:35:38:41:56:65:72:268:31:32:40:50:57:61:70:77:90:92:98:104:109:122:129:164:209:275:865 -1:1:4:5:8:6:9:10:13:7:11:12:14:16:27:20:21:18:28:33:39:15:32:26:29:34:43:37:38:42:45:49:79:22:23:24:25:30:41:44:46:47:48:56:62:105:115:119:17:19:31:35:50:51:52:53:60:67:68:73:76:88:94:96:102:103:111:126:181:186:759 -1:1:4:5:6:7:8:11:10:12:18:13:14:28:47:9:15:24:19:20:27:25:30:16:21:22:23:42:17:72:32:38:41:48:50:51:57:75:26:31:34:35:40:43:65:77:87:139:29:36:37:53:54:56:66:69:71:85:88:89:108:131:133:186:406 -1:1:4:5:6:8:7:11:16:9:12:17:14:20:15:28:23:13:19:25:26:37:38:10:22:27:31:32:51:61:18:21:30:34:41:42:43:47:29:33:65:67:80:96:183:211:24:36:40:45:46:52:54:58:59:63:82:84:85:86:172:203:270:1260 -1:1:4:5:9:7:8:11:6:13:12:19:23:10:14:16:17:20:21:25:26:28:43:18:22:34:15:29:35:27:32:44:115:222:24:38:40:47:48:54:60:61:62:66:74:96:140:146:202:30:33:36:37:41:42:45:49:50:68:76:83:84:98:103:105:108:157:196:197 -1:1:4:5:6:7:8:12:9:11:22:10:14:24:13:16:21:29:15:26:19:20:23:25:27:51:18:36:30:31:32:33:40:17:37:42:47:48:49:53:55:58:73:76:86:106:112:146:39:44:46:52:54:60:63:65:66:67:68:74:77:82:95:96:109:110:114:156:178:193:249 -1:1:4:5:7:8:10:12:14:6:16:9:11:13:15:21:20:25:26:31:33:39:17:24:23:46:18:22:37:38:49:19:42:51:62:109:28:29:30:40:43:54:59:61:69:75:80:84:105:115:206:27:32:36:41:45:53:66:68:73:76:81:83:101:145:167 -1:1:4:5:6:7:8:9:14:13:16:21:12:15:18:24:25:30:35:10:56:22:26:32:33:42:11:34:70:20:36:44:17:19:29:39:46:48:54:61:72:78:23:27:28:31:37:38:47:50:51:52:55:57:58:59:67:68:73:82:88:104:105:258:935 -1:1:4:5:8:7:13:12:9:6:11:10:15:16:22:14:18:23:64:25:26:39:20:21:27:31:33:34:36:48:24:38:47:79:83:19:28:29:30:35:37:43:54:55:66:68:95:155:182:17:42:46:57:59:75:80:81:88:92:109:111:150:163:168:265 -1:1:4:5:7:6:8:10:17:9:12:16:11:13:15:30:20:24:14:22:25:31:91:18:19:28:29:82:21:23:33:35:37:45:48:55:60:63:26:27:32:41:47:49:52:83:146:36:38:39:40:43:51:53:54:56:59:62:64:70:72:75:108:119:149:156:175 -1:1:4:5:7:6:9:13:8:14:10:12:24:20:11:32:26:15:33:17:23:25:21:27:30:44:50:16:19:22:35:37:45:49:71:86:95:99:18:28:39:41:52:55:57:59:77:83:87:31:36:54:56:60:61:62:67:111:137:138:139:148:154:172:179:210:244 -1:1:4:5:6:7:8:11:12:13:14:18:28:10:16:9:15:17:25:27:35:47:19:20:34:36:48:21:22:23:26:32:33:37:55:68:29:30:39:40:44:50:96:127:24:31:38:42:52:53:58:62:72:77:84:85:94:99:117:120:192:206:226:261:311:363 -1:1:4:5:10:6:7:8:9:11:12:16:29:13:17:18:21:30:14:15:20:48:19:22:26:27:28:23:24:33:46:47:56:77:191:25:32:34:35:38:40:66:75:82:87:91:297:41:43:50:52:54:76:80:81:84:119:138:179:186 -1:1:4:5:6:9:7:8:18:15:10:12:32:14:16:22:11:13:23:28:31:38:50:55:27:39:46:20:26:29:37:51:53:56:24:25:36:65:146:17:33:35:62:83:30:42:44:49:52:70:73:74:76:94:97:99:106:139:150:195:259:364 -1:1:4:5:6:8:7:9:10:12:11:14:22:24:28:13:20:15:16:21:26:23:31:32:34:44:17:18:19:33:39:27:43:54:56:58:62:75:76:77:78:87:100:130:25:30:35:36:37:46:48:51:52:66:70:80:82:83:85:91:93:96:106:145:157:161 -1:1:4:5:6:7:8:9:13:17:10:11:14:31:12:35:16:18:22:29:15:23:24:21:27:32:72:25:40:42:43:48:50:63:110:20:28:37:47:55:122:156:227:19:26:30:33:34:38:44:49:51:57:62:64:66:74:80:102:120:124:138:139:149:162:164:165:183
tree_sizes=243 560 243 381 566 555 556 559 567 377 466 470 386 466 372 381 376 376 380 470 470 378 381 472 374 380 377 374 474 378 384 383 374 469 380 373 374 372 380 471 389 372 381 382 380 376 381 375 380 381 244 381 382 383 383 382 373 382 376 388 389 376 376 384 378 375 374 244 388 381 378 244 382 384 380 379 371 244 383 375 378 244 383 382 373 374 382 381 244 244 381 384 244 244 380 383 376 381 377 244 384 384 386 245 245 386 387 377 245 378 385 384 381 374 384 385 382 374 382 376 245 384 245 381 381 381 378 382 378 385 245 385 380 376 245 385 382 245 245 245 245 245 245 245 245 245 379 382 376 381 245 390 245 388 245 385 381 381 245 245 245 245 385 384 245 245 245 245 245 383 245 372 245 382 384 245 382 245 245 381 245 385 381 387 245 245 376 245 245 386 384 245 384 381 245 380 245 245 245 245 245 245 245 245 245 382 245 245 245 382 376 379 381 390 383 245 245 245 245 382 384 245 245 245 245 245 381 245 385 382 245 245 384 245 376 385 378 381 245 380 384 382 382 381 245 245 382 245 245 245 245 245 245 245 245 245 245 245 245 385 245 245 245 245 245 390 387 389 245 245 245 245 245 245 245 245 245 245 245 245 245 245 245 245 385 384 385 245 245 384 245 245 382 245 385 245 245 245 245 245 245 245 372 384 381 245 390 245 245 245 245 389 245 245 245 245 245 382 245 245 382 245 245 245 245 245 385 245 385 245 245 382 245 245 245 245 245 245 245 245 390 382 245 390 380 245 245 245 245 372 245 245 385 245 245 381 245 245 388 245 245 245 245 381 245 245 245 245 245 245 245 245 245 375 245 245 388 245 388 245 245 245 245 245 245 245 387 390 245 245 245 245 245 245 245 385 382 245 245 245 245 245 245 245 245 385 245 245 387 378 384 377 245 245 245 381 245 245 245 245 384 245 388 245 245 384 387 245 245 382 245 245 245 380 245 245 245 245 245 245 245 245 245 245 385 245 245 245 245 245 245 384 245 380 245 245 245 245 390 245 245 377 245 245 245 245 245 245 245 245 383 377 245 245 245 385 245 245 380 245 245 245 245 245 245 245 245 245 245 245 245 245 245 245 245 245 245 245 387 245 245 245 245 245 245 245 245 245 245 386 245 245 245 245 382 245 384 245 245 245 245 245 245 245 245 382 245 245 245 245 245 245 245 245 245 245 245 245 387 245 245 245 245 390 245 245 245 245 245 245 245 245 245 245 245 245 245 381 245 245 245 382 382 245 245 245 245 245 245 245 245 245 245 245 245 245 245 245 245 245 245 245 245 384 245 245 245 245 245 245 245 245 245 245 245 245 245 245 245 245 245 245 245 245 245 245 245 382 385 245 245 245 245 245 245 245 245 245 245 245 382 245 385 245 245 245 245 245 245 245 245 245 245 245 245 245 245 245 245 245 245 245 245 245 245 245 245 384 390 245 245 390 382 245 245 245 381 382 245 245 245 245 245 245 245 245 245 245 245 245 245 245 245 245 245 245 245 245 245 245 245 245 245 382 245 245 245 386 245 382 245 382 245 245 245 245 245 245 245 245 245 245 245 382 245 386 390 245 245 245 245 245 245 245 245 245 245 390 245 387 245 245 245 384 245 245 245 245 245 382 245 245 245 245 245 245 245 245 245 245 245 376 382 245 245 245 245 245 245 245 245 245 245 245 245 245 245 384 245 245 245 385 245 245 245 390 245 245 245 245 245 245 245 245 245 245 245 245 245 385 245 245 245 385 245 245 245 245 245 245 245 245 245 245 245 245 245 375 245 245 384 245 245 245 245 245 245 390 245 245 245 245 245 245 245 245 245 245 382 245 245 245 245 245 245 245 245 245 245 245 245 382 245 245 245 245 245 245 245 245 245 245 245 245 245 245 245 245 245 245 245 245 245 245 245 245 245 245 245 245 245 245 245 245 245 245 245 245 388 245 245 245 245 245 245 245 245 245 245 245 245 245 245 245 245 245 245 382 245 245 245 245 245 245 245 245 245 245 245 245 245 245 245 245 245 245 245 245 245 245 245 245 245 245 382 245 245 245 245 245 245 245 245 382 245 245 245 245 245 382 376 245 245 245 245 245 385 245 245 245 245 382 245 245 245 245 384 245 245 245 245 245 245 245 245 245 382 245 245 245 245 245 245 245 245 245 245 245 245 245 245 245 245 383 382 245 245 245 245 245 245 245 245 245 245 245 245 245 245 245 245 245 384 382 245 245 245 245 245 245 246 246 246 246 246 246 246 246 246 246 246 246 246 246 246 246 246 246 246 246 246 246 246 246 246 246 246 246 246 246 246 246 246 246 246 246 246 246 246 246 246 246 246 246 246 246 246 246 246 246 246 246 246 246 246 246 246 246 246 246 246 246 246 246 246 246 246 246 246 246 246 386 246 246 246 246 391 246 246 246 246 246 246 246 246 246 246 246 246 246 246 246 246 246 246 246 246 246 246 246 246 246 246 246 246 246 246 246 246 246 246 246 246 246 386 382 246 246 246 246 246 246 246 246 246 246 246 382 246 246 246 246 246 246 383 246 246 246 246 246 246 246 246 246 246 246 385 246 246 246 246 246 246 246 246 246 246 246 246 246 246 246 246 246 246 246 385 246 246 246 246 246 246 246 246 246 246 246 246 246 246 246 246 385 246 246 246 246 246 246 246 246 246 246 382 246 246 246 246 246 246 246 246 246 246 246 246 246 246 246 246 246 246 246 246 246 246 246 246 246 246 246 246 246 246 246 246 246 246 246 246 246 246 246 246 246 246 246 246 246 246 246 246 246 246 246 246 246 246 246 246 246 391 246 246 246 246 246 246 246 246 246 246 246 246 246 246 246 246 246 246 246 246 246 246 246 246 246 246 246 246 246 246 246 246 246 246 246 246 246 246 246 246 246 246 246 246 246 246 246 246 246 246 246 246 387 246 246 246 246 246 246 246 246 378 246 246 246 246 246 246 246 246 246 246 246 246 246 246 246 246 246 246 246 246 246 246 246 246 246 246 246 246 246 246 246 246 246 246 246 246 246 246 246 246 246 246 246 246 246 246 246 246 246 246 246 246 246 246 246 246 246 246 246 246 246 387 246 246 246 246 246 246 246 246 246 246 391 246 246 246 246 246 392 246 391 246 246 383 246 246 246 246 246 246 246 246 246 386 246 246 246 246 246 246 383 246 246 246 383 246 246 246 246 246 246 246 246 246 246 246 246 246 246 246 246 246 246 246 246 246 246 246 375 246 246 246 246 246 246 246 246 246 246 246 246 246 246 389 246 385 246 246 246 246 246 246 246 246 246 382 383 246 246 246 246 246 246 246 246 246 246 246 246 246 246 246 246 246 246 246 246 246 246 246 246 246 246 246 246 246 246 246 246 246 246 246 376 246 246 246 381 246 246 246 246 246 246 246 246 246 246 246 246 246 246 246 246 391 246 246 246 246 246 246 246 246 246 246 387 246 246 246 246 246 246 246 246 383 246 246 246 246 246 246 246 246 246 246 246 246 246 246 246 246 385 246 246 246 246 246 246 246 246 246 246 246 246 246 246 246 246 246 246 246 246 246 246 246 246 246 246 246 246 246 246 246 246 385 246 246 385 246 246 246 246 383 246 246 246 246 246 246 246 246 246 246 246 246 246 246 246 246 246 246 246 246 246 246 246 246 246 246 246 246 246 246 246 246 246 246 246 246 246 246 246 246 246 246 246 246 387 246 246 246 385 246 246 246 246 246 246 246 246 246 246 246 246 246 246 246 246 246 246 246 246 246 246 246 246 246 246 246 246 246 246 246 246 246 246 246 246 246 246 246 246 246 246 246 246 246 246 246 246 246 383 246 246 246 246 246 246 246 246 246 246 246 383 246 246 246 246 246 246 246 246 246 246 382 246 246 246 246 246 246 246 246 246 246 246 246 246 246 246 246 382 246 246 246 246 246 246 246 246 246 246 246 246 246 246 246 246 246 246 246 246 246 246 246 246 246 246 246 246 246 246 246 246 246 246 246 246 246 246 246 246 246 246 246 246 246 246 246 246 246 246 246 246 246 246 246 246 246 246 246 246 246 246 246 246 246 246 246 246 246 246 246 246 246 246 246 246 246 246 246 246 246 246 246 246 246 246 246 246 246 246 246 246 246 246 246 377 246 246 383 246 246 246 246 246 246 246 246 246 246 246 246 246 246 246 246 246 246 246 386 246 246 246 246 246 246 246 246 246 246 246 246 246 383 246 246 246 246 246 386 246 383 246 246 246 246 246 246 246 246 246 246 246 246 246 246 246 246 246 246 246 246 246 246 246 246 246 246 246 246 246 246 246 246 246 246 246 246 382 246 246 246 246 246 246 246 246 377 246 246 246 246 246 246 246 246 246 246 246 246 246 246 246 387 246 246 246 246 246 246 246 246 246 246 246 246 246 246 246 246 246 246 246 246 246 246 246 246 246 246 246 246 246 246 246 246 246 246 246 246 386 246 246 246 246 390 246 246 246 246 246 246 246 246 246 246 385 246 246 246 246 246 246 246 246 246 246 246 246 246 246 246 246 246 246 246 246 246 246 386 246 246 246 246 246 246 246 246 246 246 246 246 246 377 246 246 391 246 246 246 246 246 246 246 246 246 246 246 246 246 246 246 246 246 246 246 246 246 246 246 246 246 246 246 246 246 246 246 246 246 246 246 246 246 246 246 246 246 246 246 246 246 246 246 246 246 246 246 246 246 246 246 246 246 246 246 246 246 246 246 246 246 246 246 246 246 246 246 246 246 246 246 246 246 246 246 246 246 246 246 246 246 246 246 246 246 246 246 246 246 385 246 246 246 246 246 384 246 246 246 246 246 246 246 246 246 246 246 383 246 246 246 246 246 246 246 246 246 246 246 246 246 246 246 246 246 246 383 246 246 246 246 246 246 246 386 246 246 246 246 246 246 246 246 246 246 246 246 246 385 246 246 246 246 246 246 246 246 246 246 246 246 246 246 246 246 246 246 246 246 246 246 246 246 246 246 246 246 246 246 246 246 246 246 246 246 246 246 246 246 246 246 246 246 246 246 246 246 246 246 246 246 246 246 246 246 246 246 246 246 246 246 385 246 246 246 246 246 246 246 246 246 246 246 246 246 246 246 246 246 246 246 376 246 246 246 246 246 246 246 386 246 246 246 246 246 246 246 246 246 246 246 246 246 246 246 246 246 246 246 246 246 246 246 246 246 246 246 246 246 386 246 246 246 246 246 246 246 246 246 246 246 246 246 246 246 387 246 246 246 246 246 246 246 246 246 246 246 246 246 246 246 246 246 246 246 246 246 246 246 246 246 246 246 246 246 246 246 246 246 246 246 246 246 246 246 246 246 246 246 246 246 246 246 246 246 246 246 246 246 246 246 246 246 246 246 246 246 246 246 246 246 246 246 246 246 246 246 246 246 246 246 246 246 246 246 246 246 246 246 246 246 246 246 246 388 246 246 246 246 246 246 246 246 246 246 246 246 246 246 246 246 246 246 246 246 246 246 246 246 246 246 246 246 246 246 246 246 246 246 246 246 246 246 246 246 246 246 246 246 246 246 246 246 246 246 246 385 246 246 246 246 246 246 246 246 246 246 246 246 246 246 246 246 246 246 246 246 246 246 246 246 246 246 246 246 246 246 246 246 382 246 246 246 246 246 246 246 246 246 246 246 246 246 246 246 246 246 383 246 246 246 246 246 246 246 246 246 246 246 246 246 246 246 246 246 246 246 246 246 246 246 246 246 246 246 246 246 246 246 246 246 246 246 246 246 246 246 246 246 246 246 246 246 246 246 246 246 246 246 246 246 246 246 246 246 246 246 246 246 246 246 246 246 246 246 246 246 246 246 246 246 246 246 246 246 246 246 246 246 246 246 246 246 246 246 246 246 246 246 246 246 246 246 246 246 246 246 246 246 246 246 246 246 246 246 246 246 246 246 246 246 246 246 246 246 246 246 246 246 246 246 246 246 246 246 246 246 246 246 246 246 246 246 246 246 246 246 246 246 246 246 246 246 246 246 246 246 246 246 246 246 246 246 246 246 246 246 246 246 246 246 246 246 246 246 246 246 246 246 246 246 246 246 246 246 246 246 246 246 246 246 246 377 246 246 246 246 246 246 246 246 377 246 246 246 246 246 246 246 246 246 246 246 246 246 246 246 246 246 246 246 246 246 246 246 246 246 246 246 246 246 246 246 246 246 246 386 246 246 246 246 246 246 246 246 246 386 246 246 246 246 246 246 246 246 246 246 246 246 246 246 246 246 246 246 246 246 246 246 246 246 246 246 246 246 246 246 386 246 246 246 246 246 246 246 246 246 246 246 246 246 246 246 246 246 246 246 246 246 246 246 246 246 246 246 246 246 246 246 246 246 246 246 246 246 246 246 246 246 246 246 246 246 246 246 246 246 246 246 246 246 246 246 246 246 246 246 246 246 246 246 246 246 246 246 246 246 246 246 246 246 246 246 246 246 246 246 246 246 246 246 246 246 246 246 246 246 246 246 246 246 246 246 246 246 246 246 246 246 246 246 246 246 246 246 246 246 246 246 246 246 246 246 246 246 246 246 246 246 246 246 246 246 246 246 246 246 246 246 246 246 246 246 246 246 246 246 246 246 246 246 246 246 246 246 246 246 386 385 246 246 246 246 246 246 246 246 246 246 246 246 246 246 246 246 246 246 246 391 246 246 246 246 246 246 246 246 246 246 246 246 246 246 246 246 246 246 246 246 246 246 246 246 246 246 246 246 383 246 246 246 246 246 246 246 246 246 246 228 569 228 389 573 565 574 472 475 479 480 482 391 480 384 478 388 390 387 477 485 387 391 480 385 396 385 382 382 386 391 390 381 478 387 384 384 390 386 479 385 393 389 392 388 385 392 384 475 386 228 390 391 395 385 393 385 384 384 396 392 392 382 392 390 386 385 228 385 394 389 228 391 398 395 393 383 228 392 387 389 228 390 386 385 391 390 390 228 228 395 393 228 228 385 393 384 390 385 228 390 391 391 228 228 392 383 385 228 390 392 391 388 383 385 394 385 383 392 395 228 390 228 393 384 393 393 386 387 385 228 385 388 391 228 384 390 228 228 228 228 228 228 228 228 228 388 383 388 391 228 392 228 390 228 391 390 385 228 228 228 228 389 387 228 228 228 228 228 386 228 381 228 393 392 228 384 228 228 390 228 394 385 390 228 228 389 228 228 386 395 228 394 392 228 388 228 228 228 228 228 228 228 228 228 392 228 228 228 385 394 390 391 398 391 228 228 228 228 386 390 228 228 228 228 228 391 228 397 389 228 228 394 228 384 391 393 391 228 386 399 394 390 383 228 228 390 228 228 228 228 228 228 228 228 228 228 228 228 399 228 228 228 228 228 391 395 392 228 228 228 228 228 228 228 228 228 228 228 228 228 228 228 228 385 391 393 228 228 384 228 228 385 228 393 228 228 228 228 228 228 228 381 388 395 228 385 228 228 228 228 395 228 228 228 228 228 388 228 228 391 228 228 228 228 228 396 228 385 228 228 391 228 228 228 228 228 228 228 228 392 399 228 385 388 228 228 228 228 386 228 228 385 228 228 393 228 228 392 228 228 228 228 391 228 228 228 228 228 228 228 228 228 394 228 228 396 228 384 228 228 228 228 228 228 228 393 392 228 228 228 228 228 228 228 399 394 228 228 228 228 228 228 228 228 393 228 228 398 393 388 386 228 228 228 394 228 228 228 228 391 228 390 228 228 394 383 228 228 396 228 228 228 384 228 228 228 228 228 228 228 228 228 228 395 228 228 228 228 228 228 392 228 384 228 228 228 228 392 228 228 385 228 228 228 228 228 228 228 228 391 385 228 228 228 396 228 228 390 228 228 228 228 228 228 228 228 228 228 228 228 228 228 228 228 228 228 228 391 228 228 228 228 228 228 228 228 228 228 398 228 228 228 228 394 228 391 228 228 228 228 228 228 228 228 391 228 228 228 228 228 228 228 228 228 228 228 228 398 228 228 228 228 386 228 228 228 228 228 228 228 228 228 228 228 228 228 389 228 228 228 392 391 228 228 228 228 228 228 228 228 228 228 228 228 228 228 228 228 228 228 228 228 388 228 228 228 228 228 228 228 228 228 228 228 228 228 228 228 228 228 228 228 228 228 228 228 386 395 228 228 228 228 228 228 228 228 228 228 228 386 228 390 228 228 228 228 228 228 228 228 228 228 228 228 228 228 228 228 228 228 228 228 228 228 228 228 394 386 228 228 395 385 228 228 228 397 387 228 228 228 228 228 228 228 228 228 228 228 228 228 228 228 228 228 228 228 228 228 228 228 228 228 392 228 228 228 396 228 394 228 385 228 228 228 228 228 228 228 228 228 228 228 394 228 391 385 228 228 228 228 228 228 228 228 228 228 395 228 390 228 228 228 388 228 228 228 228 228 392 228 228 228 228 228 228 228 228 228 228 228 386 391 228 228 228 228 228 228 228 228 228 228 228 228 228 228 395 228 228 228 392 228 228 228 392 228 228 228 228 228 228 228 228 228 228 228 228 228 394 228 228 228 399 228 228 228 228 228 228 228 228 228 228 228 228 228 386 228 228 387 228 228 228 228 228 228 394 228 228 228 228 228 228 228 228 228 228 390 228 228 228 228 228 228 228 228 228 228 228 228 383 228 228 228 228 228 228 228 228 228 228 228 228 228 228 228 228 228 228 228 228 228 228 228 228 228 228 228 228 228 228 228 228 228 228 228 228 384 228 228 228 228 228 228 228 228 228 228 228 228 228 228 228 228 228 228 391 228 228 228 228 228 228 228 228 228 228 228 228 228 228 228 228 228 228 228 228 228 228 228 228 228 228 399 228 228 228 228 228 228 228 228 391 228 228 228 228 228 392 393 228 228 228 228 228 390 228 228 228 228 385 228 228 228 228 391 228 228 228 228 228 228 228 228 228 391 228 228 228 228 228 228 228 228 228 228 228 228 228 228 228 228 394 385 228 228 228 228 228 228 228 228 228 228 228 228 228 228 228 228 228 390 394 228 228 228 228 228 228 228 228 228 228 228 228 228 228 228 228 228 228 228 228 228 228 228 228 228 228 228 228 228 228 228 228 228 228 228 228 228 228 228 228 228 228 228 228 228 228 228 228 228 228 228 228 228 228 228 228 228 228 228 228 228 228 228 228 228 228 228 228 228 228 228 228 228 228 228 228 228 392 228 228 228 228 391 228 228 228 228 228 228 228 228 228 228 228 228 228 228 228 228 228 228 228 228 228 228 228 228 228 228 228 228 228 228 228 228 228 228 228 228 228 395 398 228 228 228 228 228 228 228 228 228 228 228 395 228 228 228 228 228 228 390 228 228 228 228 228 228 228 228 228 228 228 388 228 228 228 228 228 228 228 228 228 228 228 228 228 228 228 228 228 228 228 391 228 228 228 228 228 228 228 228 228 228 228 228 228 228 228 228 395 228 228 228 228 228 228 228 228 228 228 394 228 228 228 228 228 228 228 228 228 228 228 228 228 228 228 228 228 228 228 228 228 228 228 228 228 228 228 228 228 228 228 228 228 228 228 228 228 228 228 228 228 228 228 228 228 228 228 228 228 228 228 228 228 228 228 228 228 390 228 228 228 228 228 228 228 228 228 228 228 228 228 228 228 228 228 228 228 228 228 228 228 228 228 228 228 228 228 228 228 228 228 228 228 228 228 228 228 228 228 228 228 228 228 228 228 228 228 228 228 228 386 228 228 228 228 228 228 228 228 386 228 228 228 228 228 228 228 228 228 228 228 228 228 228 228 228 228 228 228 228 228 228 228 228 228 228 228 228 228 228 228 228 228 228 228 228 228 228 228 228 228 228 228 228 228 228 228 228 228 228 228 228 228 228 228 228 228 228 228 228 228 391 228 228 228 228 228 228 228 228 228 228 392 228 228 228 228 228 385 228 385 228 228 391 228 228 228 228 228 228 228 228 228 399 228 228 228 228 228 228 394 228 228 228 391 228 228 228 228 228 228 228 228 228 228 228 228 228 228 228 228 228 228 228 228 228 228 228 384 228 228 228 228 228 228 228 228 228 228 228 228 228 228 385 228 395 228 228 228 228 228 228 228 228 228 391 385 228 228 228 228 228 228 228 228 228 228 228 228 228 228 228 228 228 228 228 228 228 228 228 228 228 228 228 228 228 228 228 228 228 228 228 394 228 228 228 383 228 228 228 228 228 228 228 228 228 228 228 228 228 228 228 228 395 228 228 228 228 228 228 228 228 228 228 386 228 228 228 228 228 228 228 228 391 228 228 228 228 228 228 228 228 228 228 228 228 228 228 228 228 394 228 228 228 228 228 228 228 228 228 228 228 228 228 228 228 228 228 228 228 228 228 228 228 228 228 228 228 228 228 228 228 228 386 228 228 395 228 228 228 228 391 228 228 228 228 228 228 228 228 228 228 228 228 228 228 228 228 228 228 228 228 228 228 228 228 228 228 228 228 228 228 228 228 228 228 228 228 228 228 228 228 228 228 228 228 386 228 228 228 384 228 228 228 228 228 228 228 228 228 228 228 228 228 228 228 228 228 228 228 228 228 228 228 228 228 228 228 228 228 228 228 228 228 228 228 228 228 228 228 228 228 228 228 228 228 228 228 228 228 385 228 228 228 228 228 228 228 228 228 228 228 392 228 228 228 228 228 228 228 228 228 228 385 228 228 228 228 228 228 228 228 228 228 228 228 228 228 228 228 394 228 228 228 228 228 228 228 228 228 228 228 228 228 228 228 228 228 228 228 228 228 228 228 228 228 228 228 228 228 228 228 228 228 228 228 228 228 228 228 228 228 228 228 228 228 228 228 228 228 228 228 228 228 228 228 228 228 228 228 228 228 228 228 228 228 228 228 228 228 228 228 228 228 228 228 228 228 228 228 228 228 228 228 228 228 228 228 228 228 228 228 228 228 228 228 384 228 228 383 228 228 228 228 228 228 228 228 228 228 228 228 228 228 228 228 228 228 228 391 228 228 228 228 228 228 228 228 228 228 228 228 228 384 228 228 228 228 228 393 228 393 228 228 228 228 228 228 228 228 228 228 228 228 228 228 228 228 228 228 228 228 228 228 228 228 228 228 228 228 228 228 228 228 228 228 228 228 391 228 228 228 228 228 228 228 228 393 228 228 228 228 228 228 228 228 228 228 228 228 228 228 228 385 228 228 228 228 228 228 228 228 228 228 228 228 228 228 228 228 228 228 228 228 228 228 228 228 228 228 228 228 228 228 228 228 228 228 228 228 391 228 228 228 228 385 228 228 228 228 228 228 228 228 228 228 390 228 228 228 228 228 228 228 228 228 228 228 228 228 228 228 228 228 228 228 228 228 228 390 228 228 228 228 228 228 228 228 228 228 228 228 228 391 228 228 391 228 228 228 228 228 228 228 228 228 228 228 228 228 228 228 228 228 228 228 228 228 228 228 228 228 228 228 228 228 228 228 228 228 228 228 228 228 228 228 228 228 228 228 228 228 228 228 228 228 228 228 228 228 228 228 228 228 228 228 228 228 228 228 228 228 228 228 228 228 228 228 228 228 228 228 228 228 228 228 228 228 228 228 228 228 228 228 228 228 228 228 228 228 399 228 228 228 228 228 390 228 228 228 228 228 228 228 228 228 228 228 392 228 228 228 228 228 228 228 228 228 228 228 228 228 228 228 228 228 228 390 228 228 228 228 228 228 228 392 228 228 228 228 228 228 228 228 228 228 228 228 228 386 228 228 228 228 228 228 228 228 228 228 228 228 228 228 228 228 228 228 228 228 228 228 228 228 228 228 228 228 228 228 228 228 228 228 228 228 228 228 228 228 228 228 228 228 228 228 228 228 228 228 228 228 228 228 228 228 228 228 228 228 228 228 396 228 228 228 228 228 228 228 228 228 228 228 228 228 228 228 228 228 228 228 391 228 228 228 228 228 228 228 385 228 228 228 228 228 228 228 228 228 228 228 228 228 228 228 228 228 228 228 228 228 228 228 228 228 228 228 228 228 399 228 228 228 228 228 228 228 228 228 228 228 228 228 228 228 392 228 228 228 228 228 228 228 228 228 228 228 228 228 228 228 228 228 228 228 228 228 228 228 228 228 228 228 228 228 228 228 228 228 228 228 228 228 228 228 228 228 228 228 228 228 228 228 228 228 228 228 228 228 228 228 228 228 228 228 228 228 228 228 228 228 228 228 228 228 228 228 228 228 228 228 228 228 228 228 228 228 228 228 228 228 228 228 228 391 228 228 228 228 228 228 228 228 228 228 228 228 228 228 228 228 228 228 228 228 228 228 228 228 228 228 228 228 228 228 228 228 228 228 228 228 228 228 228 228 228 228 228 228 228 228 228 228 228 228 228 390 228 228 228 228 228 228 228 228 228 228 228 228 228 228 228 228 228 228 228 228 228 228 228 228 228 228 228 228 228 228 228 228 395 228 228 228 228 228 228 228 228 228 228 228 228 228 228 228 228 228 398 228 228 228 228 228 228 228 228 228 228 228 228 228 228 228 228 228 228 228 228 228 228 228 228 228 228 228 228 228 228 228 228 228 228 228 228 228 228 228 228 228 228 228 228 228 228 228 228 228 228 228 228 228 228 228 228 228 228 228 228 228 228 228 228 228 228 228 228 228 228 228 228 228 228 228 228 228 228 228 228 228 228 228 228 228 228 228 228 228 228 228 228 228 228 228 228 228 228 228 228 228 228 228 228 228 228 228 228 228 228 228 228 228 228 228 228 228 228 228 228 228 228 228 228 228 228 228 228 228 228 228 228 228 228 228 228 228 228 228 228 228 228 228 228 228 228 228 228 228 228 228 228 228 228 228 228 228 228 228 228 228 228 228 228 228 228 228 228 228 228 228 228 228 228 228 228 228 228 228 228 228 228 228 228 385 228 228 228 228 228 228 228 228 384 228 228 228 228 228 228 228 228 228 228 228 228 228 228 228 228 228 228 228 228 228 228 228 228 228 228 228 228 228 228 228 228 228 228 397 228 228 228 228 228 228 228 228 228 384 228 228 228 228 228 228 228 228 228 228 228 228 228 228 228 228 228 228 228 228 228 228 228 228 228 228 228 228 228 228 384 228 228 228 228 228 228 228 228 228 228 228 228 228 228 228 228 228 228 228 228 228 228 228 228 228 228 228 228 228 228 228 228 228 228 228 228 228 228 228 228 228 228 228 228 228 228 228 228 228 228 228 228 228 228 228 228 228 228 228 228 228 228 228 228 228 228 228 228 228 228 228 228 228 228 228 228 228 228 228 228 228 228 228 228 228 228 228 228 228 228 228 228 228 228 228 228 228 228 228 228 228 228 228 228 228 228 228 228 228 228 228 228 228 228 228 228 228 228 228 228 228 228 228 228 228 228 228 228 228 228 228 228 228 228 228 228 228 228 228 228 228 228 228 228 228 228 228 228 228 385 394 228 228 228 228 228 228 228 228 228 228 228 228 228 228 228 228 228 228 228 395 228 228 228 228 228 228 228 228 228 228 228 228 228 228 228 228 228 228 228 228 228 228 228 228 228 228 228 228 391 228 228 228 228 228 228 228 228 228 228

Tree=0
num_leaves=1
num_cat=0
split_feature=
split_gain=
threshold=
decision_type=
left_child=
right_child=
leaf_value=-34.538776391283193
leaf_weight=
leaf_count=1000
internal_value=
internal_weight=
internal_count=
is_linear=0
shrinkage=1


Tree=1
num_leaves=4
num_cat=3
split_feature=15 8 10
split_gain=22.2838 8.35355 2.33589
threshold=0 1 2
decision_type=9 9 9
left_child=-1 -2 -3
right_child=1 2 -4
leaf_value=-2.0462109951880327 -2.1529774955884746 -2.2433171887565311 -2.4224637186816076
leaf_weight=18.946461342275143 9.2421762645244581 10.720924466848372 53.512200571596622
leaf_count=205 100 116 579
internal_value=-2.27303 -2.35168 -2.39259
internal_weight=92.4218 73.4753 64.2331
internal_count=1000 795 695
cat_boundaries=0 2 3 5
cat_threshold=274 8 9488 17072 1
is_linear=0
shrinkage=1


Tree=2
num_leaves=1
num_cat=0
split_feature=
split_gain=
threshold=
decision_type=
left_child=
right_child=
leaf_value=-34.538776391283193
leaf_weight=
leaf_count=1000
internal_value=
internal_weight=
internal_count=
is_linear=0
shrinkage=1


Tree=3
num_leaves=2
num_cat=1
split_feature=1
split_gain=0.589643
threshold=0
decision_type=9
left_child=-1
right_child=-2
leaf_value=-6.1618035141917167 -6.2602962021536737
leaf_weight=0.20365978544577956 1.7930047777481375
leaf_count=102 898
internal_value=-6.21461
internal_weight=1.99666
internal_count=1000
cat_boundaries=0 1
cat_threshold=134306048
is_linear=0
shrinkage=1


Tree=4
num_leaves=4
num_cat=3
split_feature=15 10 2
split_gain=10.8817 5.40373 3.56597
threshold=0 1 2
decision_type=9 9 9
left_child=-1 -2 -3
right_child=1 2 -4
leaf_value=-2.3199083082465832 -2.4158669051271398 -2.4695915511190445 -2.6470504643703059
leaf_weight=8.5404427647590619 7.8041976988315582 10.307430922985075 46.97243520617485
leaf_count=116 106 140 638
internal_value=-2.52573 -2.57655 -2.61152
internal_weight=73.6245 65.0841 57.2799
internal_count=1000 884 778
cat_boundaries=0 1 3 4
cat_threshold=17632 1048624 1 268435554
is_linear=0
shrinkage=1


Tree=5
num_leaves=4
num_cat=3
split_feature=15 14 6
split_gain=10.4936 4.37971 0.00209807
threshold=0 1 2
decision_type=9 9 9
left_child=-1 -2 -3
right_child=1 2 -4
leaf_value=-2.9039037175867835 -3.0425178149806986 -3.0968389393326303 -3.2698655502626632
leaf_weight=4.8810488134622574 7.8265093043446541 4.5023467503488064 24.868102144449953
leaf_count=116 186 107 591
internal_value=-3.12357 -3.19282 -3.24329
internal_weight=42.078 37.197 29.3704
internal_count=1000 884 698
cat_boundaries=0 1 2 3
cat_threshold=2 4306 69808
is_linear=0
shrinkage=1


Tree=6
num_leaves=4
num_cat=3
split_feature=15 2 14
split_gain=4.18473 2.89241 2.73939
threshold=0 1 2
decision_type=9 9 9
left_child=-1 -2 -3
right_child=1 2 -4
leaf_value=-3.5655472028908344 -3.5144313441805499 -3.5202402246821034 -3.2755324977224181
leaf_weight=6.6310713328421116 5.5775366351008415 3.377508295699954 15.400198375806221
leaf_count=214 180 109 497
internal_value=-3.44202 -3.38222 -3.33143
internal_weight=30.9863 24.3552 18.7777
internal_count=1000 786 606
cat_boundaries=0 1 2 3
cat_threshold=140272 114 2160
is_linear=0
shrinkage=1


Tree=7
num_leaves=4
num_cat=3
split_feature=14 1 10
split_gain=8.57615 3.9159 1.19818
threshold=0 1 2
decision_type=9 9 9
left_child=-1 -2 -3
right_child=1 2 -4
leaf_value=-3.3674567844040668 -3.4863752041330929 -3.5150966048944801 -3.7563315848276129
leaf_weight=2.9403067231178284 4.5465853959321976 3.2397824078798294 16.498387724161159
leaf_count=108 167 119 606
internal_value=-3.57555 -3.65409 -3.70972
internal_weight=27.2251 24.2848 19.7382
internal_count=1000 892 725
cat_boundaries=0 1 2 3
cat_threshold=4195600 8274 28674
is_linear=0
shrinkage=1


Tree=8
num_leaves=4
num_cat=3
split_feature=2 14 8
split_gain=4.33404 1.37485 1.2053
threshold=0 1 2
decision_type=9 9 9
left_child=-1 -2 -3
right_child=1 2 -4
leaf_value=-3.5822378332099225 -3.6679098978399312 -3.6776723178527106 -3.8645869507678188
leaf_weight=2.6946570351719856 2.390043631196022 3.5616336464881897 14.785465992987165
leaf_count=115 102 152 631
internal_value=-3.7297 -3.7906 -3.82275
internal_weight=23.4318 20.7371 18.3471
internal_count=1000 885 783
cat_boundaries=0 2 3 4
cat_threshold=268478848 32768 268435458 8290
is_linear=0
shrinkage=1


Tree=9
num_leaves=2
num_cat=1
split_feature=14
split_gain=5.98363
threshold=0
decision_type=9
left_child=-1
right_child=-2
leaf_value=-3.9181242049369316 -4.1683109888745413
leaf_weight=3.7612269166857004 12.95533715747297
leaf_count=225 775
internal_value=-4.07454
internal_weight=16.7166
internal_count=1000
cat_boundaries=0 1
cat_threshold=4211474
is_linear=0
shrinkage=1


Tree=10
num_leaves=3
num_cat=2
split_feature=9 2
split_gain=3.10499 1.39674
threshold=0 1
decision_type=9 9
left_child=-1 -2
right_child=1 -3
leaf_value=-4.29594176523202 -4.3509393124707563 -4.5384715896566306
leaf_weight=1.2334345728158949 1.2808743640780447 9.3456388786435109
leaf_count=104 108 788
internal_value=-4.42285 -4.49196
internal_weight=11.8599 10.6265
internal_count=1000 896
cat_boundaries=0 1 2
cat_threshold=36944 262704
is_linear=0
shrinkage=1


Tree=11
num_leaves=3
num_cat=2
split_feature=10 9
split_gain=2.68109 0.755184
threshold=0 1
decision_type=9 9
left_child=-1 -2
right_child=1 -3
leaf_value=-4.3957209239058086 -4.4556078586048935 -4.6222989477257252
leaf_weight=1.577980271540582 1.8391632130369542 7.4654790777713043
leaf_count=145 169 686
internal_value=-4.50986 -4.57832
internal_weight=10.8826 9.30464
internal_count=1000 855
cat_boundaries=0 1 2
cat_threshold=16796432 2578
is_linear=0
shrinkage=1


Tree=12
num_leaves=2
num_cat=1
split_feature=2
split_gain=9.62059
threshold=0
decision_type=9
left_child=-1
right_child=-2
leaf_value=-4.2167557733849472 -4.5547156868389598
leaf_weight=2.4312893021851778 9.4286585133522731
leaf_count=205 795
internal_value=-4.42285
internal_weight=11.8599
internal_count=1000
cat_boundaries=0 2
cat_threshold=268440258 32768
is_linear=0
shrinkage=1


Tree=13
num_leaves=3
num_cat=2
split_feature=8 14
split_gain=2.2825 0.330701
threshold=0 1
decision_type=9 9
left_child=-1 -2
right_child=1 -3
leaf_value=-4.3247809559582873 -4.3756894743813231 -4.5227405971899808
leaf_weight=2.7870877366513014 1.2215746250003574 7.8512854538857919
leaf_count=235 103 662
internal_value=-4.42285 -4.4886
internal_weight=11.8599 9.07286
internal_count=1000 765
cat_boundaries=0 1 2
cat_threshold=2706 19808
is_linear=0
shrinkage=1


Tree=14
num_leaves=2
num_cat=1
split_feature=7
split_gain=4.16742
threshold=0
decision_type=9
left_child=-1
right_child=-2
leaf_value=-4.2126330985751999 -4.4305561760204393
leaf_weight=3.221653419546783 9.613619168289004
leaf_count=251 749
internal_value=-4.34281
internal_weight=12.8353
internal_count=1000
cat_boundaries=0 1
cat_threshold=306
is_linear=0
shrinkage=1


Tree=15
num_leaves=2
num_cat=1
split_feature=2
split_gain=4.6264
threshold=0
decision_type=9
left_child=-1
right_child=-2
leaf_value=-4.1272886339989512 -4.3557903799586919
leaf_weight=2.8859967477619648 10.922600131481884
leaf_count=209 791
internal_value=-4.2687
internal_weight=13.8086
internal_count=1000
cat_boundaries=0 2
cat_threshold=263186 32768
is_linear=0
shrinkage=1


Tree=16
num_leaves=2
num_cat=1
split_feature=4
split_gain=3.62745
threshold=0
decision_type=9
left_child=-1
right_child=-2
leaf_value=-4.5750867652995275 -4.7938711730124117
leaf_weight=1.0171045437455175 7.904865138232708
leaf_count=114 886
internal_value=-4.71053
internal_weight=8.92197
internal_count=1000
cat_boundaries=0 1
cat_threshold=526416
is_linear=0
shrinkage=1


Tree=17
num_leaves=2
num_cat=1
split_feature=2
split_gain=1.92296
threshold=0
decision_type=9
left_child=-1
right_child=-2
leaf_value=-4.8684787726278715 -5.0306167776528792
leaf_weight=1.4323828648775814 5.520932013168931
leaf_count=206 794
internal_value=-4.96185
internal_weight=6.95331
internal_count=1000
cat_boundaries=0 1
cat_threshold=262418
is_linear=0
shrinkage=1


Tree=18
num_leaves=2
num_cat=1
split_feature=10
split_gain=4.44958
threshold=0
decision_type=9
left_child=-1
right_child=-2
leaf_value=-4.3693416827235989 -4.6021414400331597
leaf_weight=2.2418202478438616 8.6408023145049793
leaf_count=206 794
internal_value=-4.50986
internal_weight=10.8826
internal_count=1000
cat_boundaries=0 1
cat_threshold=83891522
is_linear=0
shrinkage=1


Tree=19
num_leaves=3
num_cat=2
split_feature=5 9
split_gain=3.5184 0.302036
threshold=0 1
decision_type=9 9
left_child=-1 -2
right_child=1 -3
leaf_value=-4.470657439945688 -4.5505767358912337 -4.7218258023411712
leaf_weight=1.0398461669683454 0.99032968282699585 7.8731209784746152
leaf_count=105 100 795
internal_value=-4.60517 -4.68389
internal_weight=9.9033 8.86345
internal_count=1000 895
cat_boundaries=0 1 2
cat_threshold=20971968 133472
is_linear=0
shrinkage=1


Tree=20
num_leaves=3
num_cat=2
split_feature=8 9
split_gain=2.82701 0.182557
threshold=0 1
decision_type=9 9
left_child=-1 -2
right_child=1 -3
leaf_value=-4.3990014913428963 -4.4612171159037848 -4.6206199223441411
leaf_weight=2.3941769637167454 1.1753232367336748 7.3131223618984205
leaf_count=220 108 672
internal_value=-4.50986 -4.58418
internal_weight=10.8826 8.48845
internal_count=1000 780
cat_boundaries=0 1 2
cat_threshold=4270850 65666
is_linear=0
shrinkage=1


Tree=21
num_leaves=2
num_cat=1
split_feature=12
split_gain=1.73731
threshold=0
decision_type=9
left_child=-1
right_child=-2
leaf_value=-4.6201404974693991 -4.7703402886929469
leaf_weight=1.5167348459362981 7.4052348360419273
leaf_count=170 830
internal_value=-4.71053
internal_weight=8.92197
internal_count=1000
cat_boundaries=0 1
cat_threshold=132162
is_linear=0
shrinkage=1


Tree=22
num_leaves=2
num_cat=1
split_feature=12
split_gain=1.27051
threshold=0
decision_type=9
left_child=-1
right_child=-2
leaf_value=-5.7309365240045134 -5.8727350507184486
leaf_weight=0.31116758473217487 2.6808284223079686
leaf_count=104 896
internal_value=-5.80914
internal_weight=2.992
internal_count=1000
cat_boundaries=0 1
cat_threshold=1076308032
is_linear=0
shrinkage=1


Tree=23
num_leaves=3
num_cat=2
split_feature=1 12
split_gain=1.65803 0.537237
threshold=0 1
decision_type=9 9
left_child=-1 -2
right_child=1 -3
leaf_value=-4.8703048232589374 -4.9050294002453834 -5.0665338163736884
leaf_weight=0.72314474731683731 0.92479087878018618 5.3053792519494891
leaf_count=104 133 763
internal_value=-4.96185 -5.02233
internal_weight=6.95331 6.23017
internal_count=1000 896
cat_boundaries=0 1 2
cat_threshold=134308928 34
is_linear=0
shrinkage=1


Tree=24
num_leaves=2
num_cat=1
split_feature=3
split_gain=2.21571
threshold=0
decision_type=9
left_child=-1
right_child=-2
leaf_value=-5.0156483125592697 -5.1925281537394481
leaf_weight=1.2349590654484925 4.7310267579741776
leaf_count=207 793
internal_value=-5.116
internal_weight=5.96599
internal_count=1000
cat_boundaries=0 1
cat_threshold=66066
is_linear=0
shrinkage=1


Tree=25
num_leaves=2
num_cat=1
split_feature=8
split_gain=0.432398
threshold=0
decision_type=9
left_child=-1
right_child=-2
leaf_value=-5.4754336012574889 -5.5567113631325151
leaf_weight=0.40251800045371056 3.5828087367117409
leaf_count=101 899
internal_value=-5.52146
internal_weight=3.98533
internal_count=1000
cat_boundaries=0 1
cat_threshold=4295712
is_linear=0
shrinkage=1


Tree=26
num_leaves=2
num_cat=1
split_feature=11
split_gain=1.00175
threshold=0
decision_type=9
left_child=-1
right_child=-2
leaf_value=-5.2279304556268942 -5.3496007247078499
leaf_weight=0.52752561587840319 4.4491311376914382
leaf_count=106 894
internal_value=-5.29832
internal_weight=4.97666
internal_count=1000
cat_boundaries=0 1
cat_threshold=3168
is_linear=0
shrinkage=1


Tree=27
num_leaves=2
num_cat=1
split_feature=7
split_gain=2.52591
threshold=0
decision_type=9
left_child=-1
right_child=-2
leaf_value=-5.1912140157040083 -5.3832987322824195
leaf_weight=1.0500745750032363 3.9265821785666049
leaf_count=211 789
internal_value=-5.29832
internal_weight=4.97666
internal_count=1000
cat_boundaries=0 1
cat_threshold=418
is_linear=0
shrinkage=1


Tree=28
num_leaves=3
num_cat=2
split_feature=10 2
split_gain=2.28202 0.562024
threshold=0 1
decision_type=9 9
left_child=-1 -2
right_child=1 -3
leaf_value=-4.6033128550519669 -4.6532806863806506 -4.8171250966002059
leaf_weight=1.0438704527914522 0.91004090756177902 6.9680583216249943
leaf_count=117 102 781
internal_value=-4.71053 -4.77676
internal_weight=8.92197 7.8781
internal_count=1000 883
cat_boundaries=0 2 4
cat_threshold=8272 1 592 32768
is_linear=0
shrinkage=1


Tree=29
num_leaves=2
num_cat=1
split_feature=13
split_gain=1.12954
threshold=0
decision_type=9
left_child=-1
right_child=-2
leaf_value=-5.4471697041565141 -5.578511674596931
leaf_weight=0.41845930740237236 3.5668674297630791
leaf_count=105 895
internal_value=-5.52146
internal_weight=3.98533
internal_count=1000
cat_boundaries=0 2
cat_threshold=5136 1
is_linear=0
shrinkage=1


Tree=30
num_leaves=2
num_cat=1
split_feature=9
split_gain=0.153826
threshold=0
decision_type=9
left_child=-1
right_child=-2
leaf_value=-6.8810871125053303 -6.9324767717473836
leaf_weight=0.10193192912265658 0.8974007093347609
leaf_count=102 898
internal_value=-6.90776
internal_weight=0.999333
internal_count=1000
cat_boundaries=0 1
cat_threshold=1091676416
is_linear=0
shrinkage=1


Tree=31
num_leaves=2
num_cat=1
split_feature=12
split_gain=2.84618
threshold=0
decision_type=9
left_child=-1
right_child=-2
leaf_value=-4.8417805710882789 -5.0410001409803762
leaf_weight=0.70923811756074429 6.2440767604857683
leaf_count=102 898
internal_value=-4.96185
internal_weight=6.95331
internal_count=1000
cat_boundaries=0 1
cat_threshold=1076043968
is_linear=0
shrinkage=1


Tree=32
num_leaves=2
num_cat=1
split_feature=3
split_gain=1.59912
threshold=0
decision_type=9
left_child=-1
right_child=-2
leaf_value=-5.4366785010986831 -5.5922344359619354
leaf_weight=0.91263982281088829 3.0726869143545632
leaf_count=229 771
internal_value=-5.52146
internal_weight=3.98533
internal_count=1000
cat_boundaries=0 1
cat_threshold=50
is_linear=0
shrinkage=1


Tree=33
num_leaves=3
num_cat=2
split_feature=8 1
split_gain=1.37229 0.496522
threshold=0 1
decision_type=9 9
left_child=-1 -2
right_child=1 -3
leaf_value=-4.6267311042769688 -4.6632944356877823 -4.7968286553712831
leaf_weight=0.9368068166077137 1.2223098464310167 6.7628530189394951
leaf_count=105 137 758
internal_value=-4.71053 -4.76149
internal_weight=8.92197 7.98516
internal_count=1000 895
cat_boundaries=0 1 2
cat_threshold=4199440 2082
is_linear=0
shrinkage=1


Tree=34
num_leaves=2
num_cat=1
split_feature=5
split_gain=2.55578
threshold=0
decision_type=9
left_child=-1
right_child=-2
leaf_value=-4.7146402835599615 -4.9007410274016561
leaf_weight=0.87325072847306728 7.0653922576457262
leaf_count=110 890
internal_value=-4.82831
internal_weight=7.93864
internal_count=1000
cat_boundaries=0 1
cat_threshold=16786704
is_linear=0
shrinkage=1


Tree=35
num_leaves=2
num_cat=1
split_feature=2
split_gain=1.11352
threshold=0
decision_type=9
left_child=-1
right_child=-2
leaf_value=-5.7369967715028247 -5.8695588212721237
leaf_weight=0.47871936112642288 2.5132766459137206
leaf_count=160 840
internal_value=-5.80914
internal_weight=2.992
internal_count=1000
cat_boundaries=0 1
cat_threshold=194
is_linear=0
shrinkage=1


Tree=36
num_leaves=2
num_cat=1
split_feature=10
split_gain=0.585664
threshold=0
decision_type=9
left_child=-1
right_child=-2
leaf_value=-6.1620107984039674 -6.260166709770707
leaf_weight=0.20964977913536131 1.7870147840585557
leaf_count=105 895
internal_value=-6.21461
internal_weight=1.99666
internal_count=1000
cat_boundaries=0 1
cat_threshold=2
is_linear=0
shrinkage=1


Tree=37
num_leaves=2
num_cat=1
split_feature=13
split_gain=1.2695
threshold=0
decision_type=9
left_child=-1
right_child=-2
leaf_value=-5.0395392821380414 -5.1735473364497446
leaf_weight=1.1514352639205752 4.814550559502095
leaf_count=193 807
internal_value=-5.116
internal_weight=5.96599
internal_count=1000
cat_boundaries=0 1
cat_threshold=4114
is_linear=0
shrinkage=1


Tree=38
num_leaves=2
num_cat=1
split_feature=12
split_gain=1.28216
threshold=0
decision_type=9
left_child=-1
right_child=-2
leaf_value=-5.7304961039770506 -5.8729587154789291
leaf_weight=0.2991996007040143 2.6927964063361292
leaf_count=100 900
internal_value=-5.80914
internal_weight=2.992
internal_count=1000
cat_boundaries=0 1
cat_threshold=1076240704
is_linear=0
shrinkage=1


Tree=39
num_leaves=3
num_cat=2
split_feature=1 7
split_gain=1.65059 0.66601
threshold=0 1
decision_type=9 9
left_child=-1 -2
right_child=1 -3
leaf_value=-4.8705598543523392 -4.9008708287032245 -5.0680461192766524
leaf_weight=0.73009806219488382 0.79963121097534895 5.4235856048762798
leaf_count=105 115 780
internal_value=-4.96185 -5.02222
internal_weight=6.95331 6.22322
internal_count=1000 895
cat_boundaries=0 1 2
cat_threshold=11280 2097200
is_linear=0
shrinkage=1


Tree=40
num_leaves=2
num_cat=1
split_feature=2
split_gain=0.152797
threshold=0
decision_type=9
left_child=-1
right_child=-2
leaf_value=-6.8811840900358359 -6.932400963547444
leaf_weight=0.10492992703802884 0.89440271141938865
leaf_count=105 895
internal_value=-6.90776
internal_weight=0.999333
internal_count=1000
cat_boundaries=0 2
cat_threshold=285270592 32768
is_linear=0
shrinkage=1


Tree=41
num_leaves=2
num_cat=1
split_feature=5
split_gain=1.21488
threshold=0
decision_type=9
left_child=-1
right_child=-2
leaf_value=-5.0415516980090418 -5.1725601055357684
leaf_weight=1.2110951221548019 4.7548907012678683
leaf_count=203 797
internal_value=-5.116
internal_weight=5.96599
internal_count=1000
cat_boundaries=0 1
cat_threshold=402
is_linear=0
shrinkage=1


Tree=42
num_leaves=2
num_cat=1
split_feature=1
split_gain=0.573811
threshold=0
decision_type=9
left_child=-1
right_child=-2
leaf_value=-6.162631194242965 -6.2597774417417611
leaf_weight=0.22761976020410657 1.7690448029898105
leaf_count=114 886
internal_value=-6.21461
internal_weight=1.99666
internal_count=1000
cat_boundaries=0 1
cat_threshold=134306944
is_linear=0
shrinkage=1


Tree=43
num_leaves=2
num_cat=1
split_feature=14
split_gain=0.592304
threshold=0
decision_type=9
left_child=-1
right_child=-2
leaf_value=-6.1616651894585255 -6.260382457352871
leaf_weight=0.19966645631939173 1.7969981068745253
leaf_count=100 900
internal_value=-6.21461
internal_weight=1.99666
internal_count=1000
cat_boundaries=0 1
cat_threshold=289425984
is_linear=0
shrinkage=1


Tree=44
num_leaves=2
num_cat=1
split_feature=1
split_gain=1.9652
threshold=0
decision_type=9
left_child=-1
right_child=-2
leaf_value=-5.1998118306257508 -5.3702051139901261
leaf_weight=0.53747892938554287 4.4391778241842985
leaf_count=108 892
internal_value=-5.29832
internal_weight=4.97666
internal_count=1000
cat_boundaries=0 1
cat_threshold=134283616
is_linear=0
shrinkage=1


Tree=45
num_leaves=2
num_cat=1
split_feature=6
split_gain=1.09029
threshold=0
decision_type=9
left_child=-1
right_child=-2
leaf_value=-5.4487426686376805 -5.5777205074857097
leaf_weight=0.46229790151119232 3.5230288356542592
leaf_count=116 884
internal_value=-5.52146
internal_weight=3.98533
internal_count=1000
cat_boundaries=0 1
cat_threshold=8194
is_linear=0
shrinkage=1


Tree=46
num_leaves=2
num_cat=1
split_feature=5
split_gain=0.15314
threshold=0
decision_type=9
left_child=-1
right_child=-2
leaf_value=-6.8811517705867304 -6.932426237582872
leaf_weight=0.10393059439957142 0.89540204405784607
leaf_count=104 896
internal_value=-6.90776
internal_weight=0.999333
internal_count=1000
cat_boundaries=0 1
cat_threshold=20997696
is_linear=0
shrinkage=1


Tree=47
num_leaves=2
num_cat=1
split_feature=11
split_gain=1.15999
threshold=0
decision_type=9
left_child=-1
right_child=-2
leaf_value=-5.7351776399816359 -5.8705319887826466
leaf_weight=0.42785542900674045 2.564140578033403
leaf_count=143 857
internal_value=-5.80914
internal_weight=2.992
internal_count=1000
cat_boundaries=0 1
cat_threshold=20482
is_linear=0
shrinkage=1


Tree=48
num_leaves=2
num_cat=1
split_feature=14
split_gain=2.39477
threshold=0
decision_type=9
left_child=-1
right_child=-2
leaf_value=-4.599974917273844 -4.7779364122956469
leaf_weight=0.95465075597167015 7.9673189260065556
leaf_count=107 893
internal_value=-4.71053
internal_weight=8.92197
internal_count=1000
cat_boundaries=0 1
cat_threshold=20972128
is_linear=0
shrinkage=1


Tree=49
num_leaves=2
num_cat=1
split_feature=8
split_gain=0.15417
threshold=0
decision_type=9
left_child=-1
right_child=-2
leaf_value=-6.8810547738692396 -6.9325020318790171
leaf_weight=0.10093259648419917 0.89840004197321832
leaf_count=101 899
internal_value=-6.90776
internal_weight=0.999333
internal_count=1000
cat_boundaries=0 1
cat_threshold=4299840
is_linear=0
shrinkage=1


Tree=50
num_leaves=1
num_cat=0
split_feature=
split_gain=
threshold=
decision_type=
left_child=
right_child=
leaf_value=-34.538776391283193
leaf_weight=
leaf_count=1000
internal_value=
internal_weight=
internal_count=
is_linear=0
shrinkage=1


Tree=51
num_leaves=2
num_cat=1
split_feature=9
split_gain=0.583019
threshold=0
decision_type=9
left_child=-1
right_child=-2
leaf_value=-6.1621488528055339 -6.2600803083726246
leaf_weight=0.21364310826174915 1.7830214549321679
leaf_count=107 893
internal_value=-6.21461
internal_weight=1.99666
internal_count=1000
cat_boundaries=0 1
cat_threshold=17901584
is_linear=0
shrinkage=1


Tree=52
num_leaves=2
num_cat=1
split_feature=12
split_gain=1.12954
threshold=0
decision_type=9
left_child=-1
right_child=-2
leaf_value=-5.4471697041565141 -5.578511674596931
leaf_weight=0.41845930740237236 3.5668674297630791
leaf_count=105 895
internal_value=-5.52146
internal_weight=3.98533
internal_count=1000
cat_boundaries=0 1
cat_threshold=1075979072
is_linear=0
shrinkage=1


Tree=53
num_leaves=2
num_cat=1
split_feature=9
split_gain=0.15314
threshold=0
decision_type=9
left_child=-1
right_child=-2
leaf_value=-6.8811517705867304 -6.932426237582872
leaf_weight=0.10393059439957142 0.89540204405784607
leaf_count=104 896
internal_value=-6.90776
internal_weight=0.999333
internal_count=1000
cat_boundaries=0 1
cat_threshold=1091680768
is_linear=0
shrinkage=1


Tree=54
num_leaves=2
num_cat=1
split_feature=2
split_gain=0.152797
threshold=0
decision_type=9
left_child=-1
right_child=-2
leaf_value=-6.8811840900358359 -6.932400963547444
leaf_weight=0.10492992703802884 0.89440271141938865
leaf_count=105 895
internal_value=-6.90776
internal_weight=0.999333
internal_count=1000
cat_boundaries=0 1
cat_threshold=285245968
is_linear=0
shrinkage=1


Tree=55
num_leaves=2
num_cat=1
split_feature=12
split_gain=0.982791
threshold=0
decision_type=9
left_child=-1
right_child=-2
leaf_value=-5.7422462431712775 -5.8666501554608983
leaf_weight=0.62831916147843003 2.3636768455617134
leaf_count=210 790
internal_value=-5.80914
internal_weight=2.992
internal_count=1000
cat_boundaries=0 1
cat_threshold=1613177858
is_linear=0
shrinkage=1


Tree=56
num_leaves=2
num_cat=1
split_feature=0
split_gain=1.61298
threshold=0
decision_type=9
left_child=-1
right_child=-2
leaf_value=-5.0274290465656106 -5.1791200534011335
leaf_weight=0.8054080861620605 5.1605777372606099
leaf_count=135 865
internal_value=-5.116
internal_weight=5.96599
internal_count=1000
cat_boundaries=0 1
cat_threshold=4144
is_linear=0
shrinkage=1


Tree=57
num_leaves=2
num_cat=1
split_feature=14
split_gain=0.116411
threshold=0
decision_type=9
left_child=-1
right_child=-2
leaf_value=-6.1911413359896166 -6.234904833360102
leaf_weight=0.20166312088258564 1.7950014423113314
leaf_count=101 899
internal_value=-6.21461
internal_weight=1.99666
internal_count=1000
cat_boundaries=0 1
cat_threshold=289425440
is_linear=0
shrinkage=1


Tree=58
num_leaves=2
num_cat=1
split_feature=14
split_gain=0.153826
threshold=0
decision_type=9
left_child=-1
right_child=-2
leaf_value=-6.8810871125053303 -6.9324767717473836
leaf_weight=0.10193192912265658 0.8974007093347609
leaf_count=102 898
internal_value=-6.90776
internal_weight=0.999333
internal_count=1000
cat_boundaries=0 1
cat_threshold=2
is_linear=0
shrinkage=1


Tree=59
num_leaves=2
num_cat=1
split_feature=2
split_gain=0.589643
threshold=0
decision_type=9
left_child=-1
right_child=-2
leaf_value=-6.1618035141917167 -6.2602962021536737
leaf_weight=0.20365978544577956 1.7930047777481375
leaf_count=102 898
internal_value=-6.21461
internal_weight=1.99666
internal_count=1000
cat_boundaries=0 2
cat_threshold=285536768 32768
is_linear=0
shrinkage=1


Tree=60
num_leaves=2
num_cat=1
split_feature=2
split_gain=0.153826
threshold=0
decision_type=9
left_child=-1
right_child=-2
leaf_value=-6.8810871125053303 -6.9324767717473836
leaf_weight=0.10193192912265658 0.8974007093347609
leaf_count=102 898
internal_value=-6.90776
internal_weight=0.999333
internal_count=1000
cat_boundaries=0 2
cat_threshold=285536768 32768
is_linear=0
shrinkage=1


Tree=61
num_leaves=2
num_cat=1
split_feature=7
split_gain=0.504656
threshold=0
decision_type=9
left_child=-1
right_child=-2
leaf_value=-5.7598280041173435 -5.8492003346425268
leaf_weight=0.30518359271809459 2.6868124143220489
leaf_count=102 898
internal_value=-5.80914
internal_weight=2.992
internal_count=1000
cat_boundaries=0 1
cat_threshold=90128
is_linear=0
shrinkage=1


Tree=62
num_leaves=2
num_cat=1
split_feature=2
split_gain=0.588315
threshold=0
decision_type=9
left_child=-1
right_child=-2
leaf_value=-6.1618726359649276 -6.2602530526446643
leaf_weight=0.20565645000897348 1.7910081131849436
leaf_count=103 897
internal_value=-6.21461
internal_weight=1.99666
internal_count=1000
cat_boundaries=0 1
cat_threshold=592
is_linear=0
shrinkage=1


Tree=63
num_leaves=2
num_cat=1
split_feature=15
split_gain=0.154515
threshold=0
decision_type=9
left_child=-1
right_child=-2
leaf_value=-6.8810224288336892 -6.9325272873786021
leaf_weight=0.099933263845741749 0.89939937461167574
leaf_count=100 900
internal_value=-6.90776
internal_weight=0.999333
internal_count=1000
cat_boundaries=0 2
cat_threshold=23584 8
is_linear=0
shrinkage=1


Tree=64
num_leaves=2
num_cat=1
split_feature=9
split_gain=1.144
threshold=0
decision_type=9
left_child=-1
right_child=-2
leaf_value=-5.4465944300479761 -5.5787981055316989
leaf_weight=0.40251800045371056 3.5828087367117409
leaf_count=101 899
internal_value=-5.52146
internal_weight=3.98533
internal_count=1000
cat_boundaries=0 1
cat_threshold=17830416
is_linear=0
shrinkage=1


Tree=65
num_leaves=2
num_cat=1
split_feature=7
split_gain=1.18501
threshold=0
decision_type=9
left_child=-1
right_child=-2
leaf_value=-5.73420736724393 -5.8710440119921303
leaf_weight=0.40092746494337916 2.5910685420967643
leaf_count=134 866
internal_value=-5.80914
internal_weight=2.992
internal_count=1000
cat_boundaries=0 1
cat_threshold=2097666
is_linear=0
shrinkage=1


Tree=66
num_leaves=2
num_cat=1
split_feature=3
split_gain=0.518926
threshold=0
decision_type=9
left_child=-1
right_child=-2
leaf_value=-6.1655654677384852 -6.2579010775479711
leaf_weight=0.31347633642144501 1.683188226772472
leaf_count=157 843
internal_value=-6.21461
internal_weight=1.99666
internal_count=1000
cat_boundaries=0 1
cat_threshold=34
is_linear=0
shrinkage=1


Tree=67
num_leaves=1
num_cat=0
split_feature=
split_gain=
threshold=
decision_type=
left_child=
right_child=
leaf_value=-34.538776391283193
leaf_weight=
leaf_count=1000
internal_value=
internal_weight=
internal_count=
is_linear=0
shrinkage=1


Tree=68
num_leaves=2
num_cat=1
split_feature=2
split_gain=0.588315
threshold=0
decision_type=9
left_child=-1
right_child=-2
leaf_value=-6.1618726359649276 -6.2602530526446643
leaf_weight=0.20565645000897348 1.7910081131849436
leaf_count=103 897
internal_value=-6.21461
internal_weight=1.99666
internal_count=1000
cat_boundaries=0 2
cat_threshold=285270656 32768
is_linear=0
shrinkage=1


Tree=69
num_leaves=2
num_cat=1
split_feature=8
split_gain=0.15417
threshold=0
decision_type=9
left_child=-1
right_child=-2
leaf_value=-6.8810547738692396 -6.9325020318790171
leaf_weight=0.10093259648419917 0.89840004197321832
leaf_count=101 899
internal_value=-6.90776
internal_weight=0.999333
internal_count=1000
cat_boundaries=0 1
cat_threshold=4299840
is_linear=0
shrinkage=1


Tree=70
num_leaves=2
num_cat=1
split_feature=3
split_gain=0.492035
threshold=0
decision_type=9
left_child=-1
right_child=-2
leaf_value=-5.7605381301254992 -5.8487691727226263
leaf_weight=0.32612756476737559 2.6658684422727679
leaf_count=109 891
internal_value=-5.80914
internal_weight=2.992
internal_count=1000
cat_boundaries=0 1
cat_threshold=1069344
is_linear=0
shrinkage=1


Tree=71
num_leaves=1
num_cat=0
split_feature=
split_gain=
threshold=
decision_type=
left_child=
right_child=
leaf_value=-34.538776391283193
leaf_weight=
leaf_count=1000
internal_value=
internal_weight=
internal_count=
is_linear=0
shrinkage=1


Tree=72
num_leaves=2
num_cat=1
split_feature=1
split_gain=0.588315
threshold=0
decision_type=9
left_child=-1
right_child=-2
leaf_value=-6.1618726359649276 -6.2602530526446643
leaf_weight=0.20565645000897348 1.7910081131849436
leaf_count=103 897
internal_value=-6.21461
internal_weight=1.99666
internal_count=1000
cat_boundaries=0 1
cat_threshold=134289792
is_linear=0
shrinkage=1


Tree=73
num_leaves=2
num_cat=1
split_feature=12
split_gain=0.153483
threshold=0
decision_type=9
left_child=-1
right_child=-2
leaf_value=-6.8811194447438613 -6.9324515069824271
leaf_weight=0.102931261761114 0.89640137669630349
leaf_count=103 897
internal_value=-6.90776
internal_weight=0.999333
internal_count=1000
cat_boundaries=0 1
cat_threshold=1613182976
is_linear=0
shrinkage=1


Tree=74
num_leaves=2
num_cat=1
split_feature=15
split_gain=0.592304
threshold=0
decision_type=9
left_child=-1
right_child=-2
leaf_value=-6.1616651894585255 -6.260382457352871
leaf_weight=0.19966645631939173 1.7969981068745253
leaf_count=100 900
internal_value=-6.21461
internal_weight=1.99666
internal_count=1000
cat_boundaries=0 2
cat_threshold=23584 8
is_linear=0
shrinkage=1


Tree=75
num_leaves=2
num_cat=1
split_feature=8
split_gain=0.116411
threshold=0
decision_type=9
left_child=-1
right_child=-2
leaf_value=-6.1911413359896166 -6.234904833360102
leaf_weight=0.20166312088258564 1.7950014423113314
leaf_count=101 899
internal_value=-6.21461
internal_weight=1.99666
internal_count=1000
cat_boundaries=0 1
cat_threshold=4299840
is_linear=0
shrinkage=1


Tree=76
num_leaves=2
num_cat=1
split_feature=2
split_gain=1.1878
threshold=0
decision_type=9
left_child=-1
right_child=-2
leaf_value=-5.7340992489452356 -5.8711007683016598
leaf_weight=0.39793546893633902 2.5940605381038044
leaf_count=133 867
internal_value=-5.80914
internal_weight=2.992
internal_count=1000
cat_boundaries=0 1
cat_threshold=66
is_linear=0
shrinkage=1


Tree=77
num_leaves=1
num_cat=0
split_feature=
split_gain=
threshold=
decision_type=
left_child=
right_child=
leaf_value=-34.538776391283193
leaf_weight=
leaf_count=1000
internal_value=
internal_weight=
internal_count=
is_linear=0
shrinkage=1


Tree=78
num_leaves=2
num_cat=1
split_feature=14
split_gain=0.576434
threshold=0
decision_type=9
left_child=-1
right_child=-2
leaf_value=-6.1624935169763075 -6.2598640484435535
leaf_weight=0.22362643107771873 1.7730381321161983
leaf_count=112 888
internal_value=-6.21461
internal_weight=1.99666
internal_count=1000
cat_boundaries=0 1
cat_threshold=268435458
is_linear=0
shrinkage=1


Tree=79
num_leaves=2
num_cat=1
split_feature=13
split_gain=0.52391
threshold=0
decision_type=9
left_child=-1
right_child=-2
leaf_value=-6.1652945745609395 -6.2580767856273702
leaf_weight=0.30548967816866934 1.6911748850252477
leaf_count=153 847
internal_value=-6.21461
internal_weight=1.99666
internal_count=1000
cat_boundaries=0 1
cat_threshold=34
is_linear=0
shrinkage=1


Tree=80
num_leaves=2
num_cat=1
split_feature=5
split_gain=0.501033
threshold=0
decision_type=9
left_child=-1
right_child=-2
leaf_value=-5.7600311916304943 -5.849077290852712
leaf_weight=0.31116758473217487 2.6808284223079686
leaf_count=104 896
internal_value=-5.80914
internal_weight=2.992
internal_count=1000
cat_boundaries=0 1
cat_threshold=20997696
is_linear=0
shrinkage=1


Tree=81
num_leaves=1
num_cat=0
split_feature=
split_gain=
threshold=
decision_type=
left_child=
right_child=
leaf_value=-34.538776391283193
leaf_weight=
leaf_count=1000
internal_value=
internal_weight=
internal_count=
is_linear=0
shrinkage=1


Tree=82
num_leaves=2
num_cat=1
split_feature=8
split_gain=0.154515
threshold=0
decision_type=9
left_child=-1
right_child=-2
leaf_value=-6.8810224288336892 -6.9325272873786021
leaf_weight=0.099933263845741749 0.89939937461167574
leaf_count=100 900
internal_value=-6.90776
internal_weight=0.999333
internal_count=1000
cat_boundaries=0 1
cat_threshold=4296256
is_linear=0
shrinkage=1


Tree=83
num_leaves=2
num_cat=1
split_feature=10
split_gain=0.590972
threshold=0
decision_type=9
left_child=-1
right_child=-2
leaf_value=-6.1617343653615464 -6.2603393370539369
leaf_weight=0.20166312088258564 1.7950014423113314
leaf_count=101 899
internal_value=-6.21461
internal_weight=1.99666
internal_count=1000
cat_boundaries=0 1
cat_threshold=67108912
is_linear=0
shrinkage=1


Tree=84
num_leaves=2
num_cat=1
split_feature=3
split_gain=1.18501
threshold=0
decision_type=9
left_child=-1
right_child=-2
leaf_value=-5.73420736724393 -5.8710440119921303
leaf_weight=0.40092746494337916 2.5910685420967643
leaf_count=134 866
internal_value=-5.80914
internal_weight=2.992
internal_count=1000
cat_boundaries=0 1
cat_threshold=16432
is_linear=0
shrinkage=1


Tree=85
num_leaves=2
num_cat=1
split_feature=2
split_gain=0.15314
threshold=0
decision_type=9
left_child=-1
right_child=-2
leaf_value=-6.8811517705867304 -6.932426237582872
leaf_weight=0.10393059439957142 0.89540204405784607
leaf_count=104 896
internal_value=-6.90776
internal_weight=0.999333
internal_count=1000
cat_boundaries=0 1
cat_threshold=2
is_linear=0
shrinkage=1


Tree=86
num_leaves=2
num_cat=1
split_feature=13
split_gain=0.116998
threshold=0
decision_type=9
left_child=-1
right_child=-2
leaf_value=-6.1910779167313263 -6.2349522584975841
leaf_weight=0.19966645631939173 1.7969981068745253
leaf_count=100 900
internal_value=-6.21461
internal_weight=1.99666
internal_count=1000
cat_boundaries=0 2
cat_threshold=300064 1
is_linear=0
shrinkage=1


Tree=87
num_leaves=2
num_cat=1
split_feature=0
split_gain=0.154515
threshold=0
decision_type=9
left_child=-1
right_child=-2
leaf_value=-6.8810224288336892 -6.9325272873786021
leaf_weight=0.099933263845741749 0.89939937461167574
leaf_count=100 900
internal_value=-6.90776
internal_weight=0.999333
internal_count=1000
cat_boundaries=0 1
cat_threshold=11280
is_linear=0
shrinkage=1


Tree=88
num_leaves=1
num_cat=0
split_feature=
split_gain=
threshold=
decision_type=
left_child=
right_child=
leaf_value=-34.538776391283193
leaf_weight=
leaf_count=1000
internal_value=
internal_weight=
internal_count=
is_linear=0
shrinkage=1


Tree=89
num_leaves=1
num_cat=0
split_feature=
split_gain=
threshold=
decision_type=
left_child=
right_child=
leaf_value=-34.538776391283193
leaf_weight=
leaf_count=1000
internal_value=
internal_weight=
internal_count=
is_linear=0
shrinkage=1


Tree=90
num_leaves=2
num_cat=1
split_feature=8
split_gain=0.15417
threshold=0
decision_type=9
left_child=-1
right_child=-2
leaf_value=-6.8810547738692396 -6.9325020318790171
leaf_weight=0.10093259648419917 0.89840004197321832
leaf_count=101 899
internal_value=-6.90776
internal_weight=0.999333
internal_count=1000
cat_boundaries=0 1
cat_threshold=4299840
is_linear=0
shrinkage=1


Tree=91
num_leaves=2
num_cat=1
split_feature=12
split_gain=0.588315
threshold=0
decision_type=9
left_child=-1
right_child=-2
leaf_value=-6.1618726359649276 -6.2602530526446643
leaf_weight=0.20565645000897348 1.7910081131849436
leaf_count=103 897
internal_value=-6.21461
internal_weight=1.99666
internal_count=1000
cat_boundaries=0 1
cat_threshold=1613182976
is_linear=0
shrinkage=1


Tree=92
num_leaves=1
num_cat=0
split_feature=
split_gain=
threshold=
decision_type=
left_child=
right_child=
leaf_value=-34.538776391283193
leaf_weight=
leaf_count=1000
internal_value=
internal_weight=
internal_count=
is_linear=0
shrinkage=1


Tree=93
num_leaves=1
num_cat=0
split_feature=
split_gain=
threshold=
decision_type=
left_child=
right_child=
leaf_value=-34.538776391283193
leaf_weight=
leaf_count=1000
internal_value=
internal_weight=
internal_count=
is_linear=0
shrinkage=1


Tree=94
num_leaves=2
num_cat=1
split_feature=14
split_gain=2.01298
threshold=0
decision_type=9
left_child=-1
right_child=-2
leaf_value=-5.1982951290895176 -5.3708362294132908
leaf_weight=0.49766567535698414 4.4789910782128572
leaf_count=100 900
internal_value=-5.29832
internal_weight=4.97666
internal_count=1000
cat_boundaries=0 1
cat_threshold=4214800
is_linear=0
shrinkage=1


Tree=95
num_leaves=2
num_cat=1
split_feature=2
split_gain=0.152797
threshold=0
decision_type=9
left_child=-1
right_child=-2
leaf_value=-6.8811840900358359 -6.932400963547444
leaf_weight=0.10492992703802884 0.89440271141938865
leaf_count=105 895
internal_value=-6.90776
internal_weight=0.999333
internal_count=1000
cat_boundaries=0 1
cat_threshold=285245968
is_linear=0
shrinkage=1


Tree=96
num_leaves=2
num_cat=1
split_feature=2
split_gain=0.571194
threshold=0
decision_type=9
left_child=-1
right_child=-2
leaf_value=-6.1627687640406172 -6.2596907762473544
leaf_weight=0.2316130893304944 1.7650514738634226
leaf_count=116 884
internal_value=-6.21461
internal_weight=1.99666
internal_count=1000
cat_boundaries=0 1
cat_threshold=8194
is_linear=0
shrinkage=1


Tree=97
num_leaves=2
num_cat=1
split_feature=9
split_gain=0.583019
threshold=0
decision_type=9
left_child=-1
right_child=-2
leaf_value=-6.1621488528055339 -6.2600803083726246
leaf_weight=0.21364310826174915 1.7830214549321679
leaf_count=107 893
internal_value=-6.21461
internal_weight=1.99666
internal_count=1000
cat_boundaries=0 1
cat_threshold=17901584
is_linear=0
shrinkage=1


Tree=98
num_leaves=2
num_cat=1
split_feature=12
split_gain=0.555625
threshold=0
decision_type=9
left_child=-1
right_child=-2
leaf_value=-6.1635919330076261 -6.2591695452766469
leaf_weight=0.25557306408882141 1.7410914991050956
leaf_count=128 872
internal_value=-6.21461
internal_weight=1.99666
internal_count=1000
cat_boundaries=0 1
cat_threshold=130
is_linear=0
shrinkage=1


Tree=99
num_leaves=1
num_cat=0
split_feature=
split_gain=
threshold=
decision_type=
left_child=
right_child=
leaf_value=-34.538776391283193
leaf_weight=
leaf_count=1000
internal_value=
internal_weight=
internal_count=
is_linear=0
shrinkage=1


Tree=100
num_leaves=2
num_cat=1
split_feature=11
split_gain=0.583019
threshold=0
decision_type=9
left_child=-1
right_child=-2
leaf_value=-6.1621488528055339 -6.2600803083726246
leaf_weight=0.21364310826174915 1.7830214549321679
leaf_count=107 893
internal_value=-6.21461
internal_weight=1.99666
internal_count=1000
cat_boundaries=0 1
cat_threshold=268788800
is_linear=0
shrinkage=1


Tree=101
num_leaves=2
num_cat=1
split_feature=9
split_gain=0.15314
threshold=0
decision_type=9
left_child=-1
right_child=-2
leaf_value=-6.8811517705867304 -6.932426237582872
leaf_weight=0.10393059439957142 0.89540204405784607
leaf_count=104 896
internal_value=-6.90776
internal_weight=0.999333
internal_count=1000
cat_boundaries=0 1
cat_threshold=1091680768
is_linear=0
shrinkage=1


Tree=102
num_leaves=2
num_cat=1
split_feature=13
split_gain=0.154515
threshold=0
decision_type=9
left_child=-1
right_child=-2
leaf_value=-6.8810224288336892 -6.9325272873786021
leaf_weight=0.099933263845741749 0.89939937461167574
leaf_count=100 900
internal_value=-6.90776
internal_weight=0.999333
internal_count=1000
cat_boundaries=0 2
cat_threshold=300064 1
is_linear=0
shrinkage=1


Tree=103
num_leaves=1
num_cat=0
split_feature=
split_gain=
threshold=
decision_type=
left_child=
right_child=
leaf_value=-34.538776391283193
leaf_weight=
leaf_count=1000
internal_value=
internal_weight=
internal_count=
is_linear=0
shrinkage=1


Tree=104
num_leaves=1
num_cat=0
split_feature=
split_gain=
threshold=
decision_type=
left_child=
right_child=
leaf_value=-34.538776391283193
leaf_weight=
leaf_count=1000
internal_value=
internal_weight=
internal_count=
is_linear=0
shrinkage=1


Tree=105
num_leaves=2
num_cat=1
split_feature=10
split_gain=0.15417
threshold=0
decision_type=9
left_child=-1
right_child=-2
leaf_value=-6.8810547738692396 -6.9325020318790171
leaf_weight=0.10093259648419917 0.89840004197321832
leaf_count=101 899
internal_value=-6.90776
internal_weight=0.999333
internal_count=1000
cat_boundaries=0 2
cat_threshold=84937792 1
is_linear=0
shrinkage=1


Tree=106
num_leaves=2
num_cat=1
split_feature=9
split_gain=0.154515
threshold=0
decision_type=9
left_child=-1
right_child=-2
leaf_value=-6.8810224288336892 -6.9325272873786021
leaf_weight=0.099933263845741749 0.89939937461167574
leaf_count=100 900
internal_value=-6.90776
internal_weight=0.999333
internal_count=1000
cat_boundaries=0 1
cat_threshold=1091610656
is_linear=0
shrinkage=1


Tree=107
num_leaves=2
num_cat=1
split_feature=4
split_gain=0.560789
threshold=0
decision_type=9
left_child=-1
right_child=-2
leaf_value=-6.1633179710539183 -6.2593435251446277
leaf_weight=0.24758640583604574 1.7490781573578713
leaf_count=124 876
internal_value=-6.21461
internal_weight=1.99666
internal_count=1000
cat_boundaries=0 1
cat_threshold=514
is_linear=0
shrinkage=1


Tree=108
num_leaves=1
num_cat=0
split_feature=
split_gain=
threshold=
decision_type=
left_child=
right_child=
leaf_value=-34.538776391283193
leaf_weight=
leaf_count=1000
internal_value=
internal_weight=
internal_count=
is_linear=0
shrinkage=1


Tree=109
num_leaves=2
num_cat=1
split_feature=15
split_gain=0.501033
threshold=0
decision_type=9
left_child=-1
right_child=-2
leaf_value=-5.7600311916304943 -5.849077290852712
leaf_weight=0.31116758473217487 2.6808284223079686
leaf_count=104 896
internal_value=-5.80914
internal_weight=2.992
internal_count=1000
cat_boundaries=0 2
cat_threshold=7712 8
is_linear=0
shrinkage=1


Tree=110
num_leaves=2
num_cat=1
split_feature=10
split_gain=0.572501
threshold=0
decision_type=9
left_child=-1
right_child=-2
leaf_value=-6.1626999925675499 -6.2597341163473761
leaf_weight=0.22961642476730049 1.7670481384266166
leaf_count=115 885
internal_value=-6.21461
internal_weight=1.99666
internal_count=1000
cat_boundaries=0 2
cat_threshold=84942336 1
is_linear=0
shrinkage=1


Tree=111
num_leaves=2
num_cat=1
split_feature=8
split_gain=0.154515
threshold=0
decision_type=9
left_child=-1
right_child=-2
leaf_value=-6.8810224288336892 -6.9325272873786021
leaf_weight=0.099933263845741749 0.89939937461167574
leaf_count=100 900
internal_value=-6.90776
internal_weight=0.999333
internal_count=1000
cat_boundaries=0 1
cat_threshold=4296256
is_linear=0
shrinkage=1


Tree=112
num_leaves=2
num_cat=1
split_feature=15
split_gain=0.588315
threshold=0
decision_type=9
left_child=-1
right_child=-2
leaf_value=-6.1618726359649276 -6.2602530526446643
leaf_weight=0.20565645000897348 1.7910081131849436
leaf_count=103 897
internal_value=-6.21461
internal_weight=1.99666
internal_count=1000
cat_boundaries=0 2
cat_threshold=7184 8
is_linear=0
shrinkage=1


Tree=113
num_leaves=2
num_cat=1
split_feature=6
split_gain=0.585664
threshold=0
decision_type=9
left_child=-1
right_child=-2
leaf_value=-6.1620107984039674 -6.260166709770707
leaf_weight=0.20964977913536131 1.7870147840585557
leaf_count=105 895
internal_value=-6.21461
internal_weight=1.99666
internal_count=1000
cat_boundaries=0 1
cat_threshold=2
is_linear=0
shrinkage=1


Tree=114
num_leaves=2
num_cat=1
split_feature=8
split_gain=0.154515
threshold=0
decision_type=9
left_child=-1
right_child=-2
leaf_value=-6.8810224288336892 -6.9325272873786021
leaf_weight=0.099933263845741749 0.89939937461167574
leaf_count=100 900
internal_value=-6.90776
internal_weight=0.999333
internal_count=1000
cat_boundaries=0 1
cat_threshold=4296256
is_linear=0
shrinkage=1


Tree=115
num_leaves=2
num_cat=1
split_feature=12
split_gain=0.153483
threshold=0
decision_type=9
left_child=-1
right_child=-2
leaf_value=-6.8811194447438613 -6.9324515069824271
leaf_weight=0.102931261761114 0.89640137669630349
leaf_count=103 897
internal_value=-6.90776
internal_weight=0.999333
internal_count=1000
cat_boundaries=0 1
cat_threshold=1613176896
is_linear=0
shrinkage=1


Tree=116
num_leaves=2
num_cat=1
split_feature=8
split_gain=0.15417
threshold=0
decision_type=9
left_child=-1
right_child=-2
leaf_value=-6.8810547738692396 -6.9325020318790171
leaf_weight=0.10093259648419917 0.89840004197321832
leaf_count=101 899
internal_value=-6.90776
internal_weight=0.999333
internal_count=1000
cat_boundaries=0 1
cat_threshold=4299840
is_linear=0
shrinkage=1


Tree=117
num_leaves=2
num_cat=1
split_feature=2
split_gain=1.04706
threshold=0
decision_type=9
left_child=-1
right_child=-2
leaf_value=-5.7396401106080104 -5.8681132341284226
leaf_weight=0.55351926130242646 2.438476745737717
leaf_count=185 815
internal_value=-5.80914
internal_weight=2.992
internal_count=1000
cat_boundaries=0 1
cat_threshold=1042
is_linear=0
shrinkage=1


Tree=118
num_leaves=2
num_cat=1
split_feature=5
split_gain=0.153483
threshold=0
decision_type=9
left_child=-1
right_child=-2
leaf_value=-6.8811194447438613 -6.9324515069824271
leaf_weight=0.102931261761114 0.89640137669630349
leaf_count=103 897
internal_value=-6.90776
internal_weight=0.999333
internal_count=1000
cat_boundaries=0 1
cat_threshold=20997888
is_linear=0
shrinkage=1


Tree=119
num_leaves=2
num_cat=1
split_feature=5
split_gain=0.153826
threshold=0
decision_type=9
left_child=-1
right_child=-2
leaf_value=-6.8810871125053303 -6.9324767717473836
leaf_weight=0.10193192912265658 0.8974007093347609
leaf_count=102 898
internal_value=-6.90776
internal_weight=0.999333
internal_count=1000
cat_boundaries=0 1
cat_threshold=2
is_linear=0
shrinkage=1


Tree=120
num_leaves=1
num_cat=0
split_feature=
split_gain=
threshold=
decision_type=
left_child=
right_child=
leaf_value=-34.538776391283193
leaf_weight=
leaf_count=1000
internal_value=
internal_weight=
internal_count=
is_linear=0
shrinkage=1


Tree=121
num_leaves=2
num_cat=1
split_feature=8
split_gain=0.154515
threshold=0
decision_type=9
left_child=-1
right_child=-2
leaf_value=-6.8810224288336892 -6.9325272873786021
leaf_weight=0.099933263845741749 0.89939937461167574
leaf_count=100 900
internal_value=-6.90776
internal_weight=0.999333
internal_count=1000
cat_boundaries=0 1
cat_threshold=4296256
is_linear=0
shrinkage=1


Tree=122
num_leaves=1
num_cat=0
split_feature=
split_gain=
threshold=
decision_type=
left_child=
right_child=
leaf_value=-34.538776391283193
leaf_weight=
leaf_count=1000
internal_value=
internal_weight=
internal_count=
is_linear=0
shrinkage=1


Tree=123
num_leaves=2
num_cat=1
split_feature=4
split_gain=0.153483
threshold=0
decision_type=9
left_child=-1
right_child=-2
leaf_value=-6.8811194447438613 -6.9324515069824271
leaf_weight=0.102931261761114 0.89640137669630349
leaf_count=103 897
internal_value=-6.90776
internal_weight=0.999333
internal_count=1000
cat_boundaries=0 1
cat_threshold=8928320
is_linear=0
shrinkage=1


Tree=124
num_leaves=2
num_cat=1
split_feature=8
split_gain=0.153483
threshold=0
decision_type=9
left_child=-1
right_child=-2
leaf_value=-6.8811194447438613 -6.9324515069824271
leaf_weight=0.102931261761114 0.89640137669630349
leaf_count=103 897
internal_value=-6.90776
internal_weight=0.999333
internal_count=1000
cat_boundaries=0 1
cat_threshold=4303936
is_linear=0
shrinkage=1


Tree=125
num_leaves=2
num_cat=1
split_feature=4
split_gain=0.153483
threshold=0
decision_type=9
left_child=-1
right_child=-2
leaf_value=-6.8811194447438613 -6.9324515069824271
leaf_weight=0.102931261761114 0.89640137669630349
leaf_count=103 897
internal_value=-6.90776
internal_weight=0.999333
internal_count=1000
cat_boundaries=0 1
cat_threshold=8928320
is_linear=0
shrinkage=1


Tree=126
num_leaves=2
num_cat=1
split_feature=15
split_gain=1.13676
threshold=0
decision_type=9
left_child=-1
right_child=-2
leaf_value=-5.4468822873277656 -5.5786549741552527
leaf_weight=0.41048865392804146 3.57483808323741
leaf_count=103 897
internal_value=-5.52146
internal_weight=3.98533
internal_count=1000
cat_boundaries=0 2
cat_threshold=7184 8
is_linear=0
shrinkage=1


Tree=127
num_leaves=2
num_cat=1
split_feature=10
split_gain=0.586989
threshold=0
decision_type=9
left_child=-1
right_child=-2
leaf_value=-6.1619417306970563 -6.2602098885194843
leaf_weight=0.2076531145721674 1.7890114486217497
leaf_count=104 896
internal_value=-6.21461
internal_weight=1.99666
internal_count=1000
cat_boundaries=0 1
cat_threshold=67111440
is_linear=0
shrinkage=1


Tree=128
num_leaves=2
num_cat=1
split_feature=0
split_gain=0.592304
threshold=0
decision_type=9
left_child=-1
right_child=-2
leaf_value=-6.1616651894585255 -6.260382457352871
leaf_weight=0.19966645631939173 1.7969981068745253
leaf_count=100 900
internal_value=-6.21461
internal_weight=1.99666
internal_count=1000
cat_boundaries=0 1
cat_threshold=11424
is_linear=0
shrinkage=1


Tree=129
num_leaves=2
num_cat=1
split_feature=9
split_gain=0.153826
threshold=0
decision_type=9
left_child=-1
right_child=-2
leaf_value=-6.8810871125053303 -6.9324767717473836
leaf_weight=0.10193192912265658 0.8974007093347609
leaf_count=102 898
internal_value=-6.90776
internal_weight=0.999333
internal_count=1000
cat_boundaries=0 1
cat_threshold=1091676416
is_linear=0
shrinkage=1


Tree=130
num_leaves=1
num_cat=0
split_feature=
split_gain=
threshold=
decision_type=
left_child=
right_child=
leaf_value=-34.538776391283193
leaf_weight=
leaf_count=1000
internal_value=
internal_weight=
internal_count=
is_linear=0
shrinkage=1


Tree=131
num_leaves=2
num_cat=1
split_feature=10
split_gain=0.15314
threshold=0
decision_type=9
left_child=-1
right_child=-2
leaf_value=-6.8811517705867304 -6.932426237582872
leaf_weight=0.10393059439957142 0.89540204405784607
leaf_count=104 896
internal_value=-6.90776
internal_weight=0.999333
internal_count=1000
cat_boundaries=0 2
cat_threshold=84937856 1
is_linear=0
shrinkage=1


Tree=132
num_leaves=2
num_cat=1
split_feature=6
split_gain=0.585664
threshold=0
decision_type=9
left_child=-1
right_child=-2
leaf_value=-6.1620107984039674 -6.260166709770707
leaf_weight=0.20964977913536131 1.7870147840585557
leaf_count=105 895
internal_value=-6.21461
internal_weight=1.99666
internal_count=1000
cat_boundaries=0 1
cat_threshold=2206240
is_linear=0
shrinkage=1


Tree=133
num_leaves=2
num_cat=1
split_feature=6
split_gain=0.152797
threshold=0
decision_type=9
left_child=-1
right_child=-2
leaf_value=-6.8811840900358359 -6.932400963547444
leaf_weight=0.10492992703802884 0.89440271141938865
leaf_count=105 895
internal_value=-6.90776
internal_weight=0.999333
internal_count=1000
cat_boundaries=0 1
cat_threshold=2
is_linear=0
shrinkage=1


Tree=134
num_leaves=1
num_cat=0
split_feature=
split_gain=
threshold=
decision_type=
left_child=
right_child=
leaf_value=-34.538776391283193
leaf_weight=
leaf_count=1000
internal_value=
internal_weight=
internal_count=
is_linear=0
shrinkage=1


Tree=135
num_leaves=2
num_cat=1
split_feature=12
split_gain=0.153483
threshold=0
decision_type=9
left_child=-1
right_child=-2
leaf_value=-6.8811194447438613 -6.9324515069824271
leaf_weight=0.102931261761114 0.89640137669630349
leaf_count=103 897
internal_value=-6.90776
internal_weight=0.999333
internal_count=1000
cat_boundaries=0 1
cat_threshold=1613182976
is_linear=0
shrinkage=1


Tree=136
num_leaves=2
num_cat=1
split_feature=7
split_gain=0.15417
threshold=0
decision_type=9
left_child=-1
right_child=-2
leaf_value=-6.8810547738692396 -6.9325020318790171
leaf_weight=0.10093259648419917 0.89840004197321832
leaf_count=101 899
internal_value=-6.90776
internal_weight=0.999333
internal_count=1000
cat_boundaries=0 1
cat_threshold=2170896
is_linear=0
shrinkage=1


Tree=137
num_leaves=1
num_cat=0
split_feature=
split_gain=
threshold=
decision_type=
left_child=
right_child=
leaf_value=-34.538776391283193
leaf_weight=
leaf_count=1000
internal_value=
internal_weight=
internal_count=
is_linear=0
shrinkage=1


Tree=138
num_leaves=1
num_cat=0
split_feature=
split_gain=
threshold=
decision_type=
left_child=
right_child=
leaf_value=-34.538776391283193
leaf_weight=
leaf_count=1000
internal_value=
internal_weight=
internal_count=
is_linear=0
shrinkage=1


Tree=139
num_leaves=1
num_cat=0
split_feature=
split_gain=
threshold=
decision_type=
left_child=
right_child=
leaf_value=-34.538776391283193
leaf_weight=
leaf_count=1000
internal_value=
internal_weight=
internal_count=
is_linear=0
shrinkage=1


Tree=140
num_leaves=1
num_cat=0
split_feature=
split_gain=
threshold=
decision_type=
left_child=
right_child=
leaf_value=-34.538776391283193
leaf_weight=
leaf_count=1000
internal_value=
internal_weight=
internal_count=
is_linear=0
shrinkage=1


Tree=141
num_leaves=1
num_cat=0
split_feature=
split_gain=
threshold=
decision_type=
left_child=
right_child=
leaf_value=-34.538776391283193
leaf_weight=
leaf_count=1000
internal_value=
internal_weight=
internal_count=
is_linear=0
shrinkage=1


Tree=142
num_leaves=1
num_cat=0
split_feature=
split_gain=
threshold=
decision_type=
left_child=
right_child=
leaf_value=-34.538776391283193
leaf_weight=
leaf_count=1000
internal_value=
internal_weight=
internal_count=
is_linear=0
shrinkage=1


Tree=143
num_leaves=1
num_cat=0
split_feature=
split_gain=
threshold=
decision_type=
left_child=
right_child=
leaf_value=-34.538776391283193
leaf_weight=
leaf_count=1000
internal_value=
internal_weight=
internal_count=
is_linear=0
shrinkage=1


Tree=144
num_leaves=1
num_cat=0
split_feature=
split_gain=
threshold=
decision_type=
left_child=
right_child=
leaf_value=-34.538776391283193
leaf_weight=
leaf_count=1000
internal_value=
internal_weight=
internal_count=
is_linear=0
shrinkage=1


Tree=145
num_leaves=1
num_cat=0
split_feature=
split_gain=
threshold=
decision_type=
left_child=
right_child=
leaf_value=-34.538776391283193
leaf_weight=
leaf_count=1000
internal_value=
internal_weight=
internal_count=
is_linear=0
shrinkage=1


Tree=146
num_leaves=2
num_cat=1
split_feature=3
split_gain=1.04144
threshold=0
decision_type=9
left_child=-1
right_child=-2
leaf_value=-5.4507256598128091 -5.5767061179920399
leaf_weight=0.51809247583150864 3.4672342613339429
leaf_count=130 870
internal_value=-5.52146
internal_weight=3.98533
internal_count=1000
cat_boundaries=0 1
cat_threshold=135170
is_linear=0
shrinkage=1


Tree=147
num_leaves=2
num_cat=1
split_feature=10
split_gain=0.592304
threshold=0
decision_type=9
left_child=-1
right_child=-2
leaf_value=-6.1616651894585255 -6.260382457352871
leaf_weight=0.19966645631939173 1.7969981068745253
leaf_count=100 900
internal_value=-6.21461
internal_weight=1.99666
internal_count=1000
cat_boundaries=0 1
cat_threshold=67115024
is_linear=0
shrinkage=1


Tree=148
num_leaves=2
num_cat=1
split_feature=6
split_gain=0.152797
threshold=0
decision_type=9
left_child=-1
right_child=-2
leaf_value=-6.8811840900358359 -6.932400963547444
leaf_weight=0.10492992703802884 0.89440271141938865
leaf_count=105 895
internal_value=-6.90776
internal_weight=0.999333
internal_count=1000
cat_boundaries=0 1
cat_threshold=2
is_linear=0
shrinkage=1


Tree=149
num_leaves=2
num_cat=1
split_feature=4
split_gain=0.153483
threshold=0
decision_type=9
left_child=-1
right_child=-2
leaf_value=-6.8811194447438613 -6.9324515069824271
leaf_weight=0.102931261761114 0.89640137669630349
leaf_count=103 897
internal_value=-6.90776
internal_weight=0.999333
internal_count=1000
cat_boundaries=0 1
cat_threshold=8928320
is_linear=0
shrinkage=1


Tree=150
num_leaves=1
num_cat=0
split_feature=
split_gain=
threshold=
decision_type=
left_child=
right_child=
leaf_value=-34.538776391283193
leaf_weight=
leaf_count=1000
internal_value=
internal_weight=
internal_count=
is_linear=0
shrinkage=1


Tree=151
num_leaves=2
num_cat=1
split_feature=2
split_gain=0.15417
threshold=0
decision_type=9
left_child=-1
right_child=-2
leaf_value=-6.8810547738692396 -6.9325020318790171
leaf_weight=0.10093259648419917 0.89840004197321832
leaf_count=101 899
internal_value=-6.90776
internal_weight=0.999333
internal_count=1000
cat_boundaries=0 2
cat_threshold=285270784 32768
is_linear=0
shrinkage=1


Tree=152
num_leaves=1
num_cat=0
split_feature=
split_gain=
threshold=
decision_type=
left_child=
right_child=
leaf_value=-34.538776391283193
leaf_weight=
leaf_count=1000
internal_value=
internal_weight=
internal_count=
is_linear=0
shrinkage=1


Tree=153
num_leaves=2
num_cat=1
split_feature=2
split_gain=0.586989
threshold=0
decision_type=9
left_child=-1
right_child=-2
leaf_value=-6.1619417306970563 -6.2602098885194843
leaf_weight=0.2076531145721674 1.7890114486217497
leaf_count=104 896
internal_value=-6.21461
internal_weight=1.99666
internal_count=1000
cat_boundaries=0 2
cat_threshold=285258368 32768
is_linear=0
shrinkage=1


Tree=154
num_leaves=1
num_cat=0
split_feature=
split_gain=
threshold=
decision_type=
left_child=
right_child=
leaf_value=-34.538776391283193
leaf_weight=
leaf_count=1000
internal_value=
internal_weight=
internal_count=
is_linear=0
shrinkage=1


Tree=155
num_leaves=2
num_cat=1
split_feature=12
split_gain=0.153483
threshold=0
decision_type=9
left_child=-1
right_child=-2
leaf_value=-6.8811194447438613 -6.9324515069824271
leaf_weight=0.102931261761114 0.89640137669630349
leaf_count=103 897
internal_value=-6.90776
internal_weight=0.999333
internal_count=1000
cat_boundaries=0 1
cat_threshold=1613182976
is_linear=0
shrinkage=1


Tree=156
num_leaves=2
num_cat=1
split_feature=4
split_gain=0.153483
threshold=0
decision_type=9
left_child=-1
right_child=-2
leaf_value=-6.8811194447438613 -6.9324515069824271
leaf_weight=0.102931261761114 0.89640137669630349
leaf_count=103 897
internal_value=-6.90776
internal_weight=0.999333
internal_count=1000
cat_boundaries=0 1
cat_threshold=8928320
is_linear=0
shrinkage=1


Tree=157
num_leaves=2
num_cat=1
split_feature=7
split_gain=0.590972
threshold=0
decision_type=9
left_child=-1
right_child=-2
leaf_value=-6.1617343653615464 -6.2603393370539369
leaf_weight=0.20166312088258564 1.7950014423113314
leaf_count=101 899
internal_value=-6.21461
internal_weight=1.99666
internal_count=1000
cat_boundaries=0 1
cat_threshold=2170896
is_linear=0
shrinkage=1


Tree=158
num_leaves=1
num_cat=0
split_feature=
split_gain=
threshold=
decision_type=
left_child=
right_child=
leaf_value=-34.538776391283193
leaf_weight=
leaf_count=1000
internal_value=
internal_weight=
internal_count=
is_linear=0
shrinkage=1


Tree=159
num_leaves=1
num_cat=0
split_feature=
split_gain=
threshold=
decision_type=
left_child=
right_child=
leaf_value=-34.538776391283193
leaf_weight=
leaf_count=1000
internal_value=
internal_weight=
internal_count=
is_linear=0
shrinkage=1


Tree=160
num_leaves=1
num_cat=0
split_feature=
split_gain=
threshold=
decision_type=
left_child=
right_child=
leaf_value=-34.538776391283193
leaf_weight=
leaf_count=1000
internal_value=
internal_weight=
internal_count=
is_linear=0
shrinkage=1


Tree=161
num_leaves=1
num_cat=0
split_feature=
split_gain=
threshold=
decision_type=
left_child=
right_child=
leaf_value=-34.538776391283193
leaf_weight=
leaf_count=1000
internal_value=
internal_weight=
internal_count=
is_linear=0
shrinkage=1


Tree=162
num_leaves=2
num_cat=1
split_feature=14
split_gain=0.15417
threshold=0
decision_type=9
left_child=-1
right_child=-2
leaf_value=-6.8810547738692396 -6.9325020318790171
leaf_weight=0.10093259648419917 0.89840004197321832
leaf_count=101 899
internal_value=-6.90776
internal_weight=0.999333
internal_count=1000
cat_boundaries=0 1
cat_threshold=289425440
is_linear=0
shrinkage=1


Tree=163
num_leaves=2
num_cat=1
split_feature=14
split_gain=0.588315
threshold=0
decision_type=9
left_child=-1
right_child=-2
leaf_value=-6.1618726359649276 -6.2602530526446643
leaf_weight=0.20565645000897348 1.7910081131849436
leaf_count=103 897
internal_value=-6.21461
internal_weight=1.99666
internal_count=1000
cat_boundaries=0 1
cat_threshold=289424416
is_linear=0
shrinkage=1


Tree=164
num_leaves=1
num_cat=0
split_feature=
split_gain=
threshold=
decision_type=
left_child=
right_child=
leaf_value=-34.538776391283193
leaf_weight=
leaf_count=1000
internal_value=
internal_weight=
internal_count=
is_linear=0
shrinkage=1


Tree=165
num_leaves=1
num_cat=0
split_feature=
split_gain=
threshold=
decision_type=
left_child=
right_child=
leaf_value=-34.538776391283193
leaf_weight=
leaf_count=1000
internal_value=
internal_weight=
internal_count=
is_linear=0
shrinkage=1


Tree=166
num_leaves=1
num_cat=0
split_feature=
split_gain=
threshold=
decision_type=
left_child=
right_child=
leaf_value=-34.538776391283193
leaf_weight=
leaf_count=1000
internal_value=
internal_weight=
internal_count=
is_linear=0
shrinkage=1


Tree=167
num_leaves=1
num_cat=0
split_feature=
split_gain=
threshold=
decision_type=
left_child=
right_child=
leaf_value=-34.538776391283193
leaf_weight=
leaf_count=1000
internal_value=
internal_weight=
internal_count=
is_linear=0
shrinkage=1


Tree=168
num_leaves=1
num_cat=0
split_feature=
split_gain=
threshold=
decision_type=
left_child=
right_child=
leaf_value=-34.538776391283193
leaf_weight=
leaf_count=1000
internal_value=
internal_weight=
internal_count=
is_linear=0
shrinkage=1


Tree=169
num_leaves=2
num_cat=1
split_feature=3
split_gain=0.152455
threshold=0
decision_type=9
left_child=-1
right_child=-2
leaf_value=-6.8812164030930729 -6.9323756848748666
leaf_weight=0.10592925967648625 0.89340337878093123
leaf_count=106 894
internal_value=-6.90776
internal_weight=0.999333
internal_count=1000
cat_boundaries=0 1
cat_threshold=1069072
is_linear=0
shrinkage=1


Tree=170
num_leaves=1
num_cat=0
split_feature=
split_gain=
threshold=
decision_type=
left_child=
right_child=
leaf_value=-34.538776391283193
leaf_weight=
leaf_count=1000
internal_value=
internal_weight=
internal_count=
is_linear=0
shrinkage=1


Tree=171
num_leaves=2
num_cat=1
split_feature=2
split_gain=1.27051
threshold=0
decision_type=9
left_child=-1
right_child=-2
leaf_value=-5.7309365240045134 -5.8727350507184486
leaf_weight=0.31116758473217487 2.6808284223079686
leaf_count=104 896
internal_value=-5.80914
internal_weight=2.992
internal_count=1000
cat_boundaries=0 1
cat_threshold=2
is_linear=0
shrinkage=1


Tree=172
num_leaves=1
num_cat=0
split_feature=
split_gain=
threshold=
decision_type=
left_child=
right_child=
leaf_value=-34.538776391283193
leaf_weight=
leaf_count=1000
internal_value=
internal_weight=
internal_count=
is_linear=0
shrinkage=1


Tree=173
num_leaves=2
num_cat=1
split_feature=3
split_gain=0.153826
threshold=0
decision_type=9
left_child=-1
right_child=-2
leaf_value=-6.8810871125053303 -6.9324767717473836
leaf_weight=0.10193192912265658 0.8974007093347609
leaf_count=102 898
internal_value=-6.90776
internal_weight=0.999333
internal_count=1000
cat_boundaries=0 1
cat_threshold=1266240
is_linear=0
shrinkage=1


Tree=174
num_leaves=2
num_cat=1
split_feature=8
split_gain=0.154515
threshold=0
decision_type=9
left_child=-1
right_child=-2
leaf_value=-6.8810224288336892 -6.9325272873786021
leaf_weight=0.099933263845741749 0.89939937461167574
leaf_count=100 900
internal_value=-6.90776
internal_weight=0.999333
internal_count=1000
cat_boundaries=0 1
cat_threshold=4296256
is_linear=0
shrinkage=1


Tree=175
num_leaves=1
num_cat=0
split_feature=
split_gain=
threshold=
decision_type=
left_child=
right_child=
leaf_value=-34.538776391283193
leaf_weight=
leaf_count=1000
internal_value=
internal_weight=
internal_count=
is_linear=0
shrinkage=1


Tree=176
num_leaves=2
num_cat=1
split_feature=7
split_gain=0.15417
threshold=0
decision_type=9
left_child=-1
right_child=-2
leaf_value=-6.8810547738692396 -6.9325020318790171
leaf_weight=0.10093259648419917 0.89840004197321832
leaf_count=101 899
internal_value=-6.90776
internal_weight=0.999333
internal_count=1000
cat_boundaries=0 1
cat_threshold=2171424
is_linear=0
shrinkage=1


Tree=177
num_leaves=1
num_cat=0
split_feature=
split_gain=
threshold=
decision_type=
left_child=
right_child=
leaf_value=-34.538776391283193
leaf_weight=
leaf_count=1000
internal_value=
internal_weight=
internal_count=
is_linear=0
shrinkage=1


Tree=178
num_leaves=1
num_cat=0
split_feature=
split_gain=
threshold=
decision_type=
left_child=
right_child=
leaf_value=-34.538776391283193
leaf_weight=
leaf_count=1000
internal_value=
internal_weight=
internal_count=
is_linear=0
shrinkage=1


Tree=179
num_leaves=2
num_cat=1
split_feature=15
split_gain=0.588315
threshold=0
decision_type=9
left_child=-1
right_child=-2
leaf_value=-6.1618726359649276 -6.2602530526446643
leaf_weight=0.20565645000897348 1.7910081131849436
leaf_count=103 897
internal_value=-6.21461
internal_weight=1.99666
internal_count=1000
cat_boundaries=0 2
cat_threshold=7184 8
is_linear=0
shrinkage=1


Tree=180
num_leaves=1
num_cat=0
split_feature=
split_gain=
threshold=
decision_type=
left_child=
right_child=
leaf_value=-34.538776391283193
leaf_weight=
leaf_count=1000
internal_value=
internal_weight=
internal_count=
is_linear=0
shrinkage=1


Tree=181
num_leaves=2
num_cat=1
split_feature=12
split_gain=0.153483
threshold=0
decision_type=9
left_child=-1
right_child=-2
leaf_value=-6.8811194447438613 -6.9324515069824271
leaf_weight=0.102931261761114 0.89640137669630349
leaf_count=103 897
internal_value=-6.90776
internal_weight=0.999333
internal_count=1000
cat_boundaries=0 1
cat_threshold=1613182976
is_linear=0
shrinkage=1


Tree=182
num_leaves=2
num_cat=1
split_feature=8
split_gain=0.153483
threshold=0
decision_type=9
left_child=-1
right_child=-2
leaf_value=-6.8811194447438613 -6.9324515069824271
leaf_weight=0.102931261761114 0.89640137669630349
leaf_count=103 897
internal_value=-6.90776
internal_weight=0.999333
internal_count=1000
cat_boundaries=0 1
cat_threshold=4303936
is_linear=0
shrinkage=1


Tree=183
num_leaves=2
num_cat=1
split_feature=15
split_gain=0.583019
threshold=0
decision_type=9
left_child=-1
right_child=-2
leaf_value=-6.1621488528055339 -6.2600803083726246
leaf_weight=0.21364310826174915 1.7830214549321679
leaf_count=107 893
internal_value=-6.21461
internal_weight=1.99666
internal_count=1000
cat_boundaries=0 2
cat_threshold=2147507520 8
is_linear=0
shrinkage=1


Tree=184
num_leaves=1
num_cat=0
split_feature=
split_gain=
threshold=
decision_type=
left_child=
right_child=
leaf_value=-34.538776391283193
leaf_weight=
leaf_count=1000
internal_value=
internal_weight=
internal_count=
is_linear=0
shrinkage=1


Tree=185
num_leaves=1
num_cat=0
split_feature=
split_gain=
threshold=
decision_type=
left_child=
right_child=
leaf_value=-34.538776391283193
leaf_weight=
leaf_count=1000
internal_value=
internal_weight=
internal_count=
is_linear=0
shrinkage=1


Tree=186
num_leaves=2
num_cat=1
split_feature=14
split_gain=0.589643
threshold=0
decision_type=9
left_child=-1
right_child=-2
leaf_value=-6.1618035141917167 -6.2602962021536737
leaf_weight=0.20365978544577956 1.7930047777481375
leaf_count=102 898
internal_value=-6.21461
internal_weight=1.99666
internal_count=1000
cat_boundaries=0 1
cat_threshold=2
is_linear=0
shrinkage=1


Tree=187
num_leaves=1
num_cat=0
split_feature=
split_gain=
threshold=
decision_type=
left_child=
right_child=
leaf_value=-34.538776391283193
leaf_weight=
leaf_count=1000
internal_value=
internal_weight=
internal_count=
is_linear=0
shrinkage=1


Tree=188
num_leaves=1
num_cat=0
split_feature=
split_gain=
threshold=
decision_type=
left_child=
right_child=
leaf_value=-34.538776391283193
leaf_weight=
leaf_count=1000
internal_value=
internal_weight=
internal_count=
is_linear=0
shrinkage=1


Tree=189
num_leaves=2
num_cat=1
split_feature=13
split_gain=0.154515
threshold=0
decision_type=9
left_child=-1
right_child=-2
leaf_value=-6.8810224288336892 -6.9325272873786021
leaf_weight=0.099933263845741749 0.89939937461167574
leaf_count=100 900
internal_value=-6.90776
internal_weight=0.999333
internal_count=1000
cat_boundaries=0 2
cat_threshold=300064 1
is_linear=0
shrinkage=1


Tree=190
num_leaves=2
num_cat=1
split_feature=9
split_gain=0.15314
threshold=0
decision_type=9
left_child=-1
right_child=-2
leaf_value=-6.8811517705867304 -6.932426237582872
leaf_weight=0.10393059439957142 0.89540204405784607
leaf_count=104 896
internal_value=-6.90776
internal_weight=0.999333
internal_count=1000
cat_boundaries=0 1
cat_threshold=1091680768
is_linear=0
shrinkage=1


Tree=191
num_leaves=1
num_cat=0
split_feature=
split_gain=
threshold=
decision_type=
left_child=
right_child=
leaf_value=-34.538776391283193
leaf_weight=
leaf_count=1000
internal_value=
internal_weight=
internal_count=
is_linear=0
shrinkage=1


Tree=192
num_leaves=2
num_cat=1
split_feature=8
split_gain=0.154515
threshold=0
decision_type=9
left_child=-1
right_child=-2
leaf_value=-6.8810224288336892 -6.9325272873786021
leaf_weight=0.099933263845741749 0.89939937461167574
leaf_count=100 900
internal_value=-6.90776
internal_weight=0.999333
internal_count=1000
cat_boundaries=0 1
cat_threshold=4296256
is_linear=0
shrinkage=1


Tree=193
num_leaves=2
num_cat=1
split_feature=8
split_gain=0.583019
threshold=0
decision_type=9
left_child=-1
right_child=-2
leaf_value=-6.1621488528055339 -6.2600803083726246
leaf_weight=0.21364310826174915 1.7830214549321679
leaf_count=107 893
internal_value=-6.21461
internal_weight=1.99666
internal_count=1000
cat_boundaries=0 1
cat_threshold=4296000
is_linear=0
shrinkage=1


Tree=194
num_leaves=1
num_cat=0
split_feature=
split_gain=
threshold=
decision_type=
left_child=
right_child=
leaf_value=-34.538776391283193
leaf_weight=
leaf_count=1000
internal_value=
internal_weight=
internal_count=
is_linear=0
shrinkage=1


Tree=195
num_leaves=2
num_cat=1
split_feature=11
split_gain=1.26182
threshold=0
decision_type=9
left_child=-1
right_child=-2
leaf_value=-5.7312661686750799 -5.8725670248941197
leaf_weight=0.3201435727532953 2.6718524342868482
leaf_count=107 893
internal_value=-5.80914
internal_weight=2.992
internal_count=1000
cat_boundaries=0 1
cat_threshold=268784704
is_linear=0
shrinkage=1


Tree=196
num_leaves=1
num_cat=0
split_feature=
split_gain=
threshold=
decision_type=
left_child=
right_child=
leaf_value=-34.538776391283193
leaf_weight=
leaf_count=1000
internal_value=
internal_weight=
internal_count=
is_linear=0
shrinkage=1


Tree=197
num_leaves=1
num_cat=0
split_feature=
split_gain=
threshold=
decision_type=
left_child=
right_child=
leaf_value=-34.538776391283193
leaf_weight=
leaf_count=1000
internal_value=
internal_weight=
internal_count=
is_linear=0
shrinkage=1


Tree=198
num_leaves=1
num_cat=0
split_feature=
split_gain=
threshold=
decision_type=
left_child=
right_child=
leaf_value=-34.538776391283193
leaf_weight=
leaf_count=1000
internal_value=
internal_weight=
internal_count=
is_linear=0
shrinkage=1


Tree=199
num_leaves=1
num_cat=0
split_feature=
split_gain=
threshold=
decision_type=
left_child=
right_child=
leaf_value=-34.538776391283193
leaf_weight=
leaf_count=1000
internal_value=
internal_weight=
internal_count=
is_linear=0
shrinkage=1


Tree=200
num_leaves=1
num_cat=0
split_feature=
split_gain=
threshold=
decision_type=
left_child=
right_child=
leaf_value=-34.538776391283193
leaf_weight=
leaf_count=1000
internal_value=
internal_weight=
internal_count=
is_linear=0
shrinkage=1


Tree=201
num_leaves=1
num_cat=0
split_feature=
split_gain=
threshold=
decision_type=
left_child=
right_child=
leaf_value=-34.538776391283193
leaf_weight=
leaf_count=1000
internal_value=
internal_weight=
internal_count=
is_linear=0
shrinkage=1


Tree=202
num_leaves=1
num_cat=0
split_feature=
split_gain=
threshold=
decision_type=
left_child=
right_child=
leaf_value=-34.538776391283193
leaf_weight=
leaf_count=1000
internal_value=
internal_weight=
internal_count=
is_linear=0
shrinkage=1


Tree=203
num_leaves=1
num_cat=0
split_feature=
split_gain=
threshold=
decision_type=
left_child=
right_child=
leaf_value=-34.538776391283193
leaf_weight=
leaf_count=1000
internal_value=
internal_weight=
internal_count=
is_linear=0
shrinkage=1


Tree=204
num_leaves=1
num_cat=0
split_feature=
split_gain=
threshold=
decision_type=
left_child=
right_child=
leaf_value=-34.538776391283193
leaf_weight=
leaf_count=1000
internal_value=
internal_weight=
internal_count=
is_linear=0
shrinkage=1


Tree=205
num_leaves=2
num_cat=1
split_feature=3
split_gain=0.153826
threshold=0
decision_type=9
left_child=-1
right_child=-2
leaf_value=-6.8810871125053303 -6.9324767717473836
leaf_weight=0.10193192912265658 0.8974007093347609
leaf_count=102 898
internal_value=-6.90776
internal_weight=0.999333
internal_count=1000
cat_boundaries=0 1
cat_threshold=1266240
is_linear=0
shrinkage=1


Tree=206
num_leaves=1
num_cat=0
split_feature=
split_gain=
threshold=
decision_type=
left_child=
right_child=
leaf_value=-34.538776391283193
leaf_weight=
leaf_count=1000
internal_value=
internal_weight=
internal_count=
is_linear=0
shrinkage=1


Tree=207
num_leaves=1
num_cat=0
split_feature=
split_gain=
threshold=
decision_type=
left_child=
right_child=
leaf_value=-34.538776391283193
leaf_weight=
leaf_count=1000
internal_value=
internal_weight=
internal_count=
is_linear=0
shrinkage=1


